{"learner":{"attributes":{"scikit_learn":"{\"_estimator_type\": \"regressor\"}"},"feature_names":["temperature_2m","relative_humidity_2m","rain","rain_24h","temperature_24h_avg","humidity_24h_avg"],"feature_types":["float","int","float","float","float","float"],"gradient_booster":{"model":{"gbtree_model_param":{"num_parallel_tree":"1","num_trees":"300"},"iteration_indptr":[0,1,2,3,4,5,6,7,8,9,10,11,12,13,14,15,16,17,18,19,20,21,22,23,24,25,26,27,28,29,30,31,32,33,34,35,36,37,38,39,40,41,42,43,44,45,46,47,48,49,50,51,52,53,54,55,56,57,58,59,60,61,62,63,64,65,66,67,68,69,70,71,72,73,74,75,76,77,78,79,80,81,82,83,84,85,86,87,88,89,90,91,92,93,94,95,96,97,98,99,100,101,102,103,104,105,106,107,108,109,110,111,112,113,114,115,116,117,118,119,120,121,122,123,124,125,126,127,128,129,130,131,132,133,134,135,136,137,138,139,140,141,142,143,144,145,146,147,148,149,150,151,152,153,154,155,156,157,158,159,160,161,162,163,164,165,166,167,168,169,170,171,172,173,174,175,176,177,178,179,180,181,182,183,184,185,186,187,188,189,190,191,192,193,194,195,196,197,198,199,200,201,202,203,204,205,206,207,208,209,210,211,212,213,214,215,216,217,218,219,220,221,222,223,224,225,226,227,228,229,230,231,232,233,234,235,236,237,238,239,240,241,242,243,244,245,246,247,248,249,250,251,252,253,254,255,256,257,258,259,260,261,262,263,264,265,266,267,268,269,270,271,272,273,274,275,276,277,278,279,280,281,282,283,284,285,286,287,288,289,290,291,292,293,294,295,296,297,298,299,300],"tree_info":[0,0,0,0,0,0,0,0,0,0,0,0,0,0,0,0,0,0,0,0,0,0,0,0,0,0,0,0,0,0,0,0,0,0,0,0,0,0,0,0,0,0,0,0,0,0,0,0,0,0,0,0,0,0,0,0,0,0,0,0,0,0,0,0,0,0,0,0,0,0,0,0,0,0,0,0,0,0,0,0,0,0,0,0,0,0,0,0,0,0,0,0,0,0,0,0,0,0,0,0,0,0,0,0,0,0,0,0,0,0,0,0,0,0,0,0,0,0,0,0,0,0,0,0,0,0,0,0,0,0,0,0,0,0,0,0,0,0,0,0,0,0,0,0,0,0,0,0,0,0,0,0,0,0,0,0,0,0,0,0,0,0,0,0,0,0,0,0,0,0,0,0,0,0,0,0,0,0,0,0,0,0,0,0,0,0,0,0,0,0,0,0,0,0,0,0,0,0,0,0,0,0,0,0,0,0,0,0,0,0,0,0,0,0,0,0,0,0,0,0,0,0,0,0,0,0,0,0,0,0,0,0,0,0,0,0,0,0,0,0,0,0,0,0,0,0,0,0,0,0,0,0,0,0,0,0,0,0,0,0,0,0,0,0,0,0,0,0,0,0,0,0,0,0,0,0,0,0,0,0,0,0,0,0,0,0,0,0,0,0,0,0,0,0,0,0,0,0,0,0],"trees":[{"base_weights":[-9.430717E-3,-1.6430068E-1,1.5066092E0,-3.0394438E-1,3.8793483E-1,1.4174057E0,4.3223114E0,-3.2410154E-1,4.0259698E-1,-3.4875926E-2,5.831617E-1,6.594168E-1,1.6640438E0,5.6692815E0,2.1760347E0,-4.6037498E-1,-2.4339998E-1,-1.4660708E-2,5.642673E-1,-2.6462483E-1,1.04381286E-1,5.7450527E-1,4.3841282E-1,1.477353E0,5.3468794E-1,1.3474835E0,2.2348673E0,2.690881E0,6.1736684E0,9.095157E-1,3.0165472E0,-8.0081767E-1,-4.2662916E-1,-4.2544925E-1,-1.48175E-1,-1.17123604E-1,1.349562E-1,1.209088E0,3.3852038E-1,-4.0800948E-2,-4.5861903E-1,-5.0130613E-2,5.6407076E-1,5.08276E-1,8.203328E-1,1.3284177E-1,2.133178E0,-1.07082866E-1,6.6394484E-1,2.127437E0,1.2396227E0,2.5810268E0,1.374472E0,3.697928E-1,-2.20173E-2,7.115102E-1,3.9607394E0,4.3002182E-1,1.5907015E-1,3.851789E0,1.2730893E0,-5.1656008E-2,-9.198388E-2,-3.3562027E-2,-5.241395E-2,-2.2552552E-2,-4.8836026E-2,-2.0006418E-2,2.7981286E-3,6.700619E-2,-1.7966177E-2,1.3666256E-1,1.223828E-2,1.5680446E-1,1.8470116E-2,1.4610151E-2,-3.5908934E-2,-1.3676281E-1,-3.8727667E-2,2.2888489E-2,-1.6301678E-2,-5.461771E-3,7.6107934E-2,2.643324E-1,5.0115507E-2,2.688273E-1,7.760326E-2,-8.4053375E-2,6.4034395E-2,2.3432815E-1,-1.8438943E-2,4.724767E-2,-4.163448E-2,7.6365165E-2,3.8098335E-2,3.2724312E-1,1.8558104E-1,1.03614986E-1,1.7557167E-1,3.2933003E-1,2.2858873E-1,1.681352E-1,1.0412116E-1,1.3963424E-1,4.300053E-1,1.6713489E-2,5.3360946E-2,4.3217897E-1,1.1578573E-1,9.97566E-3,1.4520186E-1],"categories":[],"categories_nodes":[],"categories_segments":[],"categories_sizes":[],"default_left":[0,0,0,0,0,0,0,0,0,0,0,0,0,0,0,0,0,0,0,0,0,0,0,0,0,0,0,0,0,0,0,0,0,0,0,0,0,0,0,0,0,0,0,0,0,0,0,0,0,0,0,0,0,0,0,0,0,0,0,0,0,0,0,0,0,0,0,0,0,0,0,0,0,0,0,0,0,0,0,0,0,0,0,0,0,0,0,0,0,0,0,0,0,0,0,0,0,0,0,0,0,0,0,0,0,0,0,0,0,0,0],"id":0,"left_children":[1,3,5,7,9,11,13,15,17,19,21,23,25,27,29,31,33,35,37,39,41,43,-1,45,47,49,51,53,55,57,59,61,63,65,67,69,-1,71,73,75,77,79,81,83,85,87,89,91,93,95,97,99,101,-1,-1,-1,103,105,-1,107,109,-1,-1,-1,-1,-1,-1,-1,-1,-1,-1,-1,-1,-1,-1,-1,-1,-1,-1,-1,-1,-1,-1,-1,-1,-1,-1,-1,-1,-1,-1,-1,-1,-1,-1,-1,-1,-1,-1,-1,-1,-1,-1,-1,-1,-1,-1,-1,-1,-1,-1],"loss_changes":[5.8972095E3,1.7575193E3,5.7859814E2,2.5918994E2,3.7972284E2,4.210332E2,1.9292236E2,1.943894E2,3.4074654E1,4.654718E1,1.0102673E2,5.5933334E1,3.047207E2,4.7984863E1,2.8127625E1,7.521838E1,1.9253589E2,2.0007137E1,5.257682E1,2.3819164E1,6.437918E1,5.072168E1,0E0,6.408542E1,4.0220505E1,8.97334E1,1.7694019E2,2.4266727E1,4.6818604E1,3.5620804E0,1.9851868E1,1.9553772E1,5.294568E1,4.787262E1,6.669545E1,6.667858E0,0E0,1.5925262E1,5.0963104E1,1.5281617E1,1.8536507E1,2.1423769E1,2.7831795E1,3.633429E1,5.2942657E1,1.2887986E1,2.429161E1,1.4894042E1,1.1078964E1,3.4980347E1,9.972656E1,8.307666E1,1.6249054E1,0E0,0E0,0E0,5.3074036E0,1.5590191E-1,0E0,8.92363E0,1.3247585E0,0E0,0E0,0E0,0E0,0E0,0E0,0E0,0E0,0E0,0E0,0E0,0E0,0E0,0E0,0E0,0E0,0E0,0E0,0E0,0E0,0E0,0E0,0E0,0E0,0E0,0E0,0E0,0E0,0E0,0E0,0E0,0E0,0E0,0E0,0E0,0E0,0E0,0E0,0E0,0E0,0E0,0E0,0E0,0E0,0E0,0E0,0E0,0E0,0E0,0E0],"parents":[2147483647,0,0,1,1,2,2,3,3,4,4,5,5,6,6,7,7,8,8,9,9,10,10,11,11,12,12,13,13,14,14,15,15,16,16,17,17,18,18,19,19,20,20,21,21,23,23,24,24,25,25,26,26,27,27,28,28,29,29,30,30,31,31,32,32,33,33,34,34,35,35,37,37,38,38,39,39,40,40,41,41,42,42,43,43,44,44,45,45,46,46,47,47,48,48,49,49,50,50,51,51,52,52,56,56,57,57,59,59,60,60],"right_children":[2,4,6,8,10,12,14,16,18,20,22,24,26,28,30,32,34,36,38,40,42,44,-1,46,48,50,52,54,56,58,60,62,64,66,68,70,-1,72,74,76,78,80,82,84,86,88,90,92,94,96,98,100,102,-1,-1,-1,104,106,-1,108,110,-1,-1,-1,-1,-1,-1,-1,-1,-1,-1,-1,-1,-1,-1,-1,-1,-1,-1,-1,-1,-1,-1,-1,-1,-1,-1,-1,-1,-1,-1,-1,-1,-1,-1,-1,-1,-1,-1,-1,-1,-1,-1,-1,-1,-1,-1,-1,-1,-1,-1],"split_conditions":[1.62E1,4.1E0,5.15E1,9.25E1,8.7125E1,9.0166664E1,1.955E1,1E-1,4E-1,8.3416664E1,9.9041664E1,1.9320833E1,2.73E1,1.33E1,2.13E1,5.6E1,8.0916664E1,1.9995832E1,1.3E0,1.99E1,3E-1,1E2,4.3841282E-1,1.85E1,8.3583336E1,1.495E1,2.08875E1,1.18E1,1.72E1,2.2720833E1,1E-1,6.9458336E1,1.7029167E1,1.9320833E1,2.23125E1,1.13E1,1.349562E-1,1.7575E1,1.30125E1,9.4E1,7.4125E1,2.0929167E1,1.82E1,7.9083333E0,8.7291664E1,7.9E1,2.13E1,1.81E1,2.4270834E1,1.2470834E1,2.1733334E1,9.5541664E1,4E-1,3.697928E-1,-2.20173E-2,7.115102E-1,9.7916664E1,1E-1,1.5907015E-1,2.2675E1,2.1841667E1,-5.1656008E-2,-9.198388E-2,-3.3562027E-2,-5.241395E-2,-2.2552552E-2,-4.8836026E-2,-2.0006418E-2,2.7981286E-3,6.700619E-2,-1.7966177E-2,1.3666256E-1,1.223828E-2,1.5680446E-1,1.8470116E-2,1.4610151E-2,-3.5908934E-2,-1.3676281E-1,-3.8727667E-2,2.2888489E-2,-1.6301678E-2,-5.461771E-3,7.6107934E-2,2.643324E-1,5.0115507E-2,2.688273E-1,7.760326E-2,-8.4053375E-2,6.4034395E-2,2.3432815E-1,-1.8438943E-2,4.724767E-2,-4.163448E-2,7.6365165E-2,3.8098335E-2,3.2724312E-1,1.8558104E-1,1.03614986E-1,1.7557167E-1,3.2933003E-1,2.2858873E-1,1.681352E-1,1.0412116E-1,1.3963424E-1,4.300053E-1,1.6713489E-2,5.3360946E-2,4.3217897E-1,1.1578573E-1,9.97566E-3,1.4520186E-1],"split_indices":[3,3,3,5,5,5,4,3,3,5,5,4,3,0,0,1,5,4,3,0,2,1,0,3,5,4,4,0,0,4,2,5,4,4,4,0,0,4,4,1,5,4,0,4,5,1,0,3,4,4,4,5,2,0,0,0,5,2,0,4,4,0,0,0,0,0,0,0,0,0,0,0,0,0,0,0,0,0,0,0,0,0,0,0,0,0,0,0,0,0,0,0,0,0,0,0,0,0,0,0,0,0,0,0,0,0,0,0,0,0,0],"split_type":[0,0,0,0,0,0,0,0,0,0,0,0,0,0,0,0,0,0,0,0,0,0,0,0,0,0,0,0,0,0,0,0,0,0,0,0,0,0,0,0,0,0,0,0,0,0,0,0,0,0,0,0,0,0,0,0,0,0,0,0,0,0,0,0,0,0,0,0,0,0,0,0,0,0,0,0,0,0,0,0,0,0,0,0,0,0,0,0,0,0,0,0,0,0,0,0,0,0,0,0,0,0,0,0,0,0,0,0,0,0,0],"sum_hessian":[2.5115E4,2.2788E4,2.327E3,1.8189E4,4.599E3,2.257E3,7E1,1.7685E4,5.04E2,1.453E3,3.146E3,5.55E2,1.702E3,4.2E1,2.8E1,6.576E3,1.1109E4,1.41E2,3.63E2,5.48E2,9.05E2,3.14E3,6E0,7.2E1,4.83E2,1.097E3,6.05E2,7E0,3.5E1,1.2E1,1.6E1,5.91E2,5.985E3,3.814E3,7.295E3,1.32E2,9E0,9.3E1,2.7E2,2.55E2,2.93E2,6.78E2,2.27E2,2.476E3,6.64E2,2.4E1,4.8E1,8.1E1,4.02E2,1.31E2,9.66E2,4.3E2,1.75E2,5E0,2E0,2.3E1,1.2E1,8E0,4E0,1E1,6E0,1.76E2,4.15E2,3.098E3,2.887E3,9.14E2,2.9E3,5.635E3,1.66E3,9E0,1.23E2,8.1E1,1.2E1,2.9E1,2.41E2,1.61E2,9.4E1,2E1,2.73E2,1.95E2,4.83E2,5.5E1,1.72E2,7E0,2.469E3,1.4E1,6.5E2,8E0,1.6E1,4.4E1,4E0,2.8E1,5.3E1,2.96E2,1.06E2,2.3E1,1.08E2,6.95E2,2.71E2,1.23E2,3.07E2,8.9E1,8.6E1,2E0,1E1,3E0,5E0,8E0,2E0,1E0,5E0],"tree_param":{"num_deleted":"0","num_feature":"6","num_nodes":"111","size_leaf_vector":"1"}},{"base_weights":[-4.822735E-3,-2.6715872E-1,7.277746E-1,-5.101293E-1,-2.1125808E-1,5.227661E-1,1.8915075E0,-3.0930746E-1,-6.169732E-1,-3.7601954E-1,-1.3525285E-1,4.30157E-2,6.953827E-1,2.710131E0,1.3333657E0,-1.0087867E0,-2.8506714E-1,-5.508694E-1,-8.5122406E-1,-4.192109E-1,-1.7015843E-2,-1.58539E-1,4.097867E-1,7.821089E-3,6.125122E-1,5.6083506E-1,1.027068E0,2.3932252E0,5.369483E0,1.0572686E0,1.9868015E0,-5.242124E-1,-1.3099939E0,-3.104132E-1,1.0481901E0,-7.820168E-1,-4.8505056E-1,-2.5078714E-1,-8.92093E-1,-4.5695773E-1,-1.9597131E-1,-4.3849382E-1,9.1494456E-2,-3.7389737E-1,-1.196816E-1,7.615786E-1,2.4403688E-1,2.1826111E-1,7.605595E-5,1.6777474E0,3.4882888E-1,5.496363E-1,4.1667357E-1,2.683323E0,9.763406E-1,1.6407149E0,2.857001E0,2.2546282E0,5.825997E0,-5.943267E-1,1.1032536E0,4.0805163E0,1.6590744E0,-7.2028175E-2,2.9308308E-2,-1.3844065E-1,2.0074844E-2,1.2778896E-1,-3.227017E-2,3.1343076E-1,2.5025502E-2,3.2766752E-2,-8.120813E-2,-8.789611E-3,-5.397466E-2,-4.304945E-2,-7.711462E-3,-9.517156E-2,-5.7016093E-2,-3.3903345E-2,-5.8000304E-2,-5.889333E-2,-1.1032676E-2,-6.1578225E-2,3.9637934E-2,2.2795677E-1,5.316608E-3,-5.0991256E-2,-1.887835E-2,-3.2889831E-3,-2.3295287E-2,3.2247502E-2,9.430698E-2,1.5293978E-1,1.6808867E-2,-7.497941E-2,2.203413E-3,1.7889845E-1,-5.1023844E-3,6.1046313E-2,-2.6165023E-2,4.793593E-2,7.9932414E-2,3.1873342E-1,1.6996393E-1,1.3328314E-1,8.31709E-2,7.8924656E-2,2.0357342E-1,2.4571669E-1,4.255209E-1,3.2797766E-1,-2.0549484E-2,6.510133E-1,3.3962306E-1,-7.430062E-2,5.2057385E-2,-1.0483931E-2,1.15283094E-1,1.341992E-1,6.083843E-1,1.50381E-1,3.526689E-1],"categories":[],"categories_nodes":[],"categories_segments":[],"categories_sizes":[],"default_left":[0,0,0,0,0,0,0,0,0,0,0,0,0,0,0,0,0,0,0,0,0,0,0,0,0,0,0,0,0,0,0,0,0,0,0,0,0,0,0,0,0,0,0,0,0,0,0,0,0,0,0,0,0,0,0,0,0,0,0,0,0,0,0,0,0,0,0,0,0,0,0,0,0,0,0,0,0,0,0,0,0,0,0,0,0,0,0,0,0,0,0,0,0,0,0,0,0,0,0,0,0,0,0,0,0,0,0,0,0,0,0,0,0,0,0,0,0,0,0,0,0,0,0],"id":1,"left_children":[1,3,5,7,9,11,13,15,17,19,21,23,25,27,29,31,33,35,37,39,41,43,45,47,49,51,53,55,57,59,61,63,65,67,69,71,73,75,77,79,81,83,85,87,89,91,93,-1,95,97,99,101,-1,103,105,107,109,111,113,115,117,119,121,-1,-1,-1,-1,-1,-1,-1,-1,-1,-1,-1,-1,-1,-1,-1,-1,-1,-1,-1,-1,-1,-1,-1,-1,-1,-1,-1,-1,-1,-1,-1,-1,-1,-1,-1,-1,-1,-1,-1,-1,-1,-1,-1,-1,-1,-1,-1,-1,-1,-1,-1,-1,-1,-1,-1,-1,-1,-1,-1,-1],"loss_changes":[4.83907E3,2.5170642E2,1.5829119E3,7.419922E1,1.887168E2,4.675315E2,4.5055298E2,2.0160889E1,3.455786E1,7.376984E1,1.3100702E2,2.9959805E1,1.8471729E2,3.2594043E2,1.04883545E2,5.151577E0,3.9761604E1,2.650354E1,1.1947723E1,3.569812E1,2.3456287E1,8.275925E1,2.4479042E1,2.3732777E1,2.3851719E1,1.1707776E2,9.79491E1,1.2130029E2,4.6587524E1,3.247815E1,1.1330939E2,2.9352932E0,2.9759598E0,2.2779839E1,3.5836525E1,1.3277313E1,2.9886536E1,9.967401E-1,8.363586E0,5.2503845E1,2.0666534E1,1.5785484E1,3.4095848E1,3.7973312E1,8.241554E1,1.0454498E1,2.7955359E1,0E0,2.3150833E1,3.360447E0,1.1500008E1,5.1346313E1,0E0,1.1935272E1,5.885559E1,4.548181E1,1.1365369E2,1.8327915E1,3.7732666E1,2.3759437E0,2.4557617E1,1.1801721E2,3.906259E1,0E0,0E0,0E0,0E0,0E0,0E0,0E0,0E0,0E0,0E0,0E0,0E0,0E0,0E0,0E0,0E0,0E0,0E0,0E0,0E0,0E0,0E0,0E0,0E0,0E0,0E0,0E0,0E0,0E0,0E0,0E0,0E0,0E0,0E0,0E0,0E0,0E0,0E0,0E0,0E0,0E0,0E0,0E0,0E0,0E0,0E0,0E0,0E0,0E0,0E0,0E0,0E0,0E0,0E0,0E0,0E0,0E0,0E0,0E0,0E0],"parents":[2147483647,0,0,1,1,2,2,3,3,4,4,5,5,6,6,7,7,8,8,9,9,10,10,11,11,12,12,13,13,14,14,15,15,16,16,17,17,18,18,19,19,20,20,21,21,22,22,23,23,24,24,25,25,26,26,27,27,28,28,29,29,30,30,31,31,32,32,33,33,34,34,35,35,36,36,37,37,38,38,39,39,40,40,41,41,42,42,43,43,44,44,45,45,46,46,48,48,49,49,50,50,51,51,53,53,54,54,55,55,56,56,57,57,58,58,59,59,60,60,61,61,62,62],"right_children":[2,4,6,8,10,12,14,16,18,20,22,24,26,28,30,32,34,36,38,40,42,44,46,48,50,52,54,56,58,60,62,64,66,68,70,72,74,76,78,80,82,84,86,88,90,92,94,-1,96,98,100,102,-1,104,106,108,110,112,114,116,118,120,122,-1,-1,-1,-1,-1,-1,-1,-1,-1,-1,-1,-1,-1,-1,-1,-1,-1,-1,-1,-1,-1,-1,-1,-1,-1,-1,-1,-1,-1,-1,-1,-1,-1,-1,-1,-1,-1,-1,-1,-1,-1,-1,-1,-1,-1,-1,-1,-1,-1,-1,-1,-1,-1,-1,-1,-1,-1,-1,-1,-1],"split_conditions":[4.5E0,7.7083336E1,2.45E1,1.74875E1,1E-1,8.7125E1,1.8975E1,4.4E1,2.3854166E1,9.0458336E1,9.2625E1,1.88E1,1.59E1,5.15E1,9.5125E1,1.84E1,2.33E1,1.955E1,6.875E1,2.1770834E1,1.3958333E1,6.9E1,1.3E0,7.204167E0,2.0116667E1,9.9041664E1,1.28875E1,2.96E1,1.33E1,8.2541664E1,9.5541664E1,7.3416664E1,2.49E1,4.5E1,6.55E1,1.08E1,2.0116667E1,1E-1,7.6541664E1,1.6304167E1,7.8416664E1,1E2,1.03E1,2.66E1,9.3E1,4E-1,7.4E1,2.1826111E-1,4.9E1,2.18E1,2.4029167E1,1E2,4.1667357E-1,9.5333336E1,1.81E1,1.46E1,1.74E1,1.18E1,1.74E1,2.515E1,1.7E1,9.7E1,2.3E1,-7.2028175E-2,2.9308308E-2,-1.3844065E-1,2.0074844E-2,1.2778896E-1,-3.227017E-2,3.1343076E-1,2.5025502E-2,3.2766752E-2,-8.120813E-2,-8.789611E-3,-5.397466E-2,-4.304945E-2,-7.711462E-3,-9.517156E-2,-5.7016093E-2,-3.3903345E-2,-5.8000304E-2,-5.889333E-2,-1.1032676E-2,-6.1578225E-2,3.9637934E-2,2.2795677E-1,5.316608E-3,-5.0991256E-2,-1.887835E-2,-3.2889831E-3,-2.3295287E-2,3.2247502E-2,9.430698E-2,1.5293978E-1,1.6808867E-2,-7.497941E-2,2.203413E-3,1.7889845E-1,-5.1023844E-3,6.1046313E-2,-2.6165023E-2,4.793593E-2,7.9932414E-2,3.1873342E-1,1.6996393E-1,1.3328314E-1,8.31709E-2,7.8924656E-2,2.0357342E-1,2.4571669E-1,4.255209E-1,3.2797766E-1,-2.0549484E-2,6.510133E-1,3.3962306E-1,-7.430062E-2,5.2057385E-2,-1.0483931E-2,1.15283094E-1,1.341992E-1,6.083843E-1,1.50381E-1,3.526689E-1],"split_indices":[3,5,3,4,3,5,4,1,4,5,5,3,3,3,5,0,0,4,5,4,4,1,3,4,4,5,4,3,0,5,5,5,0,1,5,0,4,3,5,4,5,1,0,0,1,3,1,0,1,0,4,1,0,5,3,0,0,0,0,4,0,1,0,0,0,0,0,0,0,0,0,0,0,0,0,0,0,0,0,0,0,0,0,0,0,0,0,0,0,0,0,0,0,0,0,0,0,0,0,0,0,0,0,0,0,0,0,0,0,0,0,0,0,0,0,0,0,0,0,0,0,0,0],"split_type":[0,0,0,0,0,0,0,0,0,0,0,0,0,0,0,0,0,0,0,0,0,0,0,0,0,0,0,0,0,0,0,0,0,0,0,0,0,0,0,0,0,0,0,0,0,0,0,0,0,0,0,0,0,0,0,0,0,0,0,0,0,0,0,0,0,0,0,0,0,0,0,0,0,0,0,0,0,0,0,0,0,0,0,0,0,0,0,0,0,0,0,0,0,0,0,0,0,0,0,0,0,0,0,0,0,0,0,0,0,0,0,0,0,0,0,0,0,0,0,0,0,0,0],"sum_hessian":[2.5177E4,1.8539E4,6.638E3,3.466E3,1.5073E4,5.645E3,9.93E2,1.205E3,2.261E3,4.757E3,1.0316E4,1.494E3,4.151E3,4.01E2,5.92E2,3.9E1,1.166E3,1.766E3,4.95E2,4.246E3,5.11E2,9.894E3,4.22E2,1.408E3,8.6E1,2.955E3,1.196E3,3.6E2,4.1E1,4.18E2,1.74E2,1.6E1,2.3E1,1.145E3,2.1E1,3.89E2,1.377E3,3.2E1,4.63E2,3.631E3,6.15E2,1.04E2,4.07E2,1.511E3,8.383E3,1.34E2,2.88E2,4E0,1.404E3,1.6E1,7E1,2.947E3,8E0,3.4E1,1.162E3,1.39E2,2.21E2,6E0,3.5E1,1.1E1,4.07E2,2.2E1,1.52E2,1.3E1,3E0,2.2E1,1E0,8E0,1.137E3,5E0,1.6E1,1E1,3.79E2,1.67E2,1.21E3,1.5E1,1.7E1,3.89E2,7.4E1,1.856E3,1.775E3,1.09E2,5.06E2,8.6E1,1.8E1,6E0,4.01E2,8.7E2,6.41E2,4.747E3,3.636E3,4E1,9.4E1,1.5E1,2.73E2,3.9E1,1.365E3,1.5E1,1E0,4.9E1,2.1E1,2.302E3,6.45E2,2.1E1,1.3E1,3.33E2,8.29E2,4.5E1,9.4E1,1.74E2,4.7E1,4E0,2E0,2.6E1,9E0,1E1,1E0,1.6E1,3.91E2,1E1,1.2E1,1.42E2,1E1],"tree_param":{"num_deleted":"0","num_feature":"6","num_nodes":"123","size_leaf_vector":"1"}},{"base_weights":[-7.886996E-3,-2.51972E-1,6.425663E-1,-3.9478207E-1,-1.6835052E-1,4.5898694E-1,1.7150416E0,-3.674645E-1,-5.5090123E-1,-3.484962E-1,-8.181238E-2,4.867416E-2,6.2335676E-1,2.4204447E0,1.209969E0,-4.3167052E-1,-2.8942534E-1,-6.2213135E-1,-3.7313914E-1,-3.9810678E-1,2.1504724E-2,-1.06562875E-1,3.8428852E-1,-1.3498582E-1,1.5717798E-1,5.021367E-1,1.0060312E0,1.7287353E0,3.3780453E0,5.6842256E-1,1.488258E0,-3.3885238E-1,-6.500366E-1,-3.5046265E-1,2.8182092E-1,-5.321934E-1,-8.2308173E-1,-7.085228E-1,-9.6579276E-2,-4.4013315E-1,-7.3102124E-2,-4.545405E-1,1.4315973E-1,-1.2213772E-1,2.5910136E-1,1.1687607E0,2.9653016E-1,4.8137266E-2,-3.448885E-1,6.620924E-2,4.996638E-1,4.6626765E-1,1.0093048E0,1.5085267E0,8.1334865E-1,2.902849E0,1.4617866E0,2.0563388E0,3.913707E0,-5.8952844E-1,6.864271E-1,5.659491E-2,1.5506787E0,-3.5201464E-2,5.9428614E-2,-8.1424534E-2,-3.811407E-2,-5.6777664E-2,-3.051107E-2,4.256866E-2,-7.482525E-2,-4.2965226E-2,-8.741274E-2,-8.564305E-2,-1.7922467E-2,5.1114004E-2,-7.6139845E-2,6.045444E-2,-2.7800057E-2,-2.986384E-2,-6.6289835E-2,3.6722773E-3,-8.449944E-2,-1.4308452E-2,-6.501382E-2,2.4028221E-1,1.1028195E-2,-1.637934E-2,2.653837E-3,8.025443E-2,-3.234487E-4,5.712855E-2,2.8443098E-1,6.838506E-2,7.0422203E-3,5.5272103E-4,2.0256718E-1,-7.030102E-2,-2.5960518E-2,3.100037E-3,8.199831E-2,1.5224168E-2,9.074954E-2,4.595625E-2,2.8788382E-1,1.510414E-1,4.7373615E-2,-7.3372945E-2,1.6132268E-1,5.1125634E-2,1.17946945E-1,1.4682609E-1,3.670176E-1,6.0103502E-2,1.7296489E-1,3.393967E-1,1.1833417E-1,2.7616417E-1,4.5281845E-1,-6.869421E-2,4.8454512E-2,6.0019333E-2,2.0857142E-1,-3.191894E-2,5.6622393E-2,5.4489E-1,1.516453E-1],"categories":[],"categories_nodes":[],"categories_segments":[],"categories_sizes":[],"default_left":[0,0,0,0,0,0,0,0,0,0,0,0,0,0,0,0,0,0,0,0,0,0,0,0,0,0,0,0,0,0,0,0,0,0,0,0,0,0,0,0,0,0,0,0,0,0,0,0,0,0,0,0,0,0,0,0,0,0,0,0,0,0,0,0,0,0,0,0,0,0,0,0,0,0,0,0,0,0,0,0,0,0,0,0,0,0,0,0,0,0,0,0,0,0,0,0,0,0,0,0,0,0,0,0,0,0,0,0,0,0,0,0,0,0,0,0,0,0,0,0,0,0,0,0,0,0,0],"id":2,"left_children":[1,3,5,7,9,11,13,15,17,19,21,23,25,27,29,31,33,35,37,39,41,43,45,47,49,51,53,55,57,59,61,63,65,67,69,71,73,75,77,79,81,83,85,87,89,91,93,95,97,99,101,103,105,107,109,111,113,115,117,119,121,123,125,-1,-1,-1,-1,-1,-1,-1,-1,-1,-1,-1,-1,-1,-1,-1,-1,-1,-1,-1,-1,-1,-1,-1,-1,-1,-1,-1,-1,-1,-1,-1,-1,-1,-1,-1,-1,-1,-1,-1,-1,-1,-1,-1,-1,-1,-1,-1,-1,-1,-1,-1,-1,-1,-1,-1,-1,-1,-1,-1,-1,-1,-1,-1,-1],"loss_changes":[3.970579E3,2.1709863E2,1.3427515E3,2.8435669E1,1.7879831E2,3.930277E2,3.5228223E2,2.8525513E1,1.2404541E1,6.832944E1,8.944672E1,3.3260803E1,1.925144E2,2.6904834E2,1.0324017E2,6.3320984E1,9.019597E1,1.2411926E1,2.6644619E1,4.47959E1,2.5604832E1,4.1948036E1,2.6571419E1,2.3848175E1,3.264904E1,5.705139E1,9.559503E1,7.191968E1,1.1443408E2,2.4727215E1,3.6194702E1,2.7254639E1,4.093048E1,2.28396E1,3.736657E1,1.6945206E1,4.527359E0,8.772934E0,2.0392664E1,9.1399414E1,3.1990446E1,5.389782E0,2.5886047E1,4.372837E1,4.2914524E1,3.741795E1,3.0866253E1,2.7964071E1,8.644081E0,2.2002388E1,3.103358E1,4.6479187E1,5.5107162E1,6.597864E1,7.958371E1,4.3046326E1,4.5072937E1,5.6706543E1,7.386072E1,2.111555E0,1.8296043E1,3.627923E0,4.3637085E1,0E0,0E0,0E0,0E0,0E0,0E0,0E0,0E0,0E0,0E0,0E0,0E0,0E0,0E0,0E0,0E0,0E0,0E0,0E0,0E0,0E0,0E0,0E0,0E0,0E0,0E0,0E0,0E0,0E0,0E0,0E0,0E0,0E0,0E0,0E0,0E0,0E0,0E0,0E0,0E0,0E0,0E0,0E0,0E0,0E0,0E0,0E0,0E0,0E0,0E0,0E0,0E0,0E0,0E0,0E0,0E0,0E0,0E0,0E0,0E0,0E0,0E0,0E0,0E0],"parents":[2147483647,0,0,1,1,2,2,3,3,4,4,5,5,6,6,7,7,8,8,9,9,10,10,11,11,12,12,13,13,14,14,15,15,16,16,17,17,18,18,19,19,20,20,21,21,22,22,23,23,24,24,25,25,26,26,27,27,28,28,29,29,30,30,31,31,32,32,33,33,34,34,35,35,36,36,37,37,38,38,39,39,40,40,41,41,42,42,43,43,44,44,45,45,46,46,47,47,48,48,49,49,50,50,51,51,52,52,53,53,54,54,55,55,56,56,57,57,58,58,59,59,60,60,61,61,62,62],"right_children":[2,4,6,8,10,12,14,16,18,20,22,24,26,28,30,32,34,36,38,40,42,44,46,48,50,52,54,56,58,60,62,64,66,68,70,72,74,76,78,80,82,84,86,88,90,92,94,96,98,100,102,104,106,108,110,112,114,116,118,120,122,124,126,-1,-1,-1,-1,-1,-1,-1,-1,-1,-1,-1,-1,-1,-1,-1,-1,-1,-1,-1,-1,-1,-1,-1,-1,-1,-1,-1,-1,-1,-1,-1,-1,-1,-1,-1,-1,-1,-1,-1,-1,-1,-1,-1,-1,-1,-1,-1,-1,-1,-1,-1,-1,-1,-1,-1,-1,-1,-1,-1,-1,-1,-1,-1,-1],"split_conditions":[4.1E0,8.0833336E1,2.45E1,9.5E1,1E-1,8.7125E1,1.9079166E1,7.7208336E1,2.305E1,9.0541664E1,9.2625E1,8.3416664E1,1.65E1,3.51E1,9.0333336E1,2.1841667E1,2.4933332E1,1.7E1,7.7833336E1,2.1770834E1,1.3958333E1,5E-1,1.30125E1,2.03E1,5E-1,2E0,1.79875E1,9.3916664E1,1.4254167E1,8.2958336E1,1.7E1,2.76E1,3E-1,1.6154167E1,2.6920834E1,7.9583336E1,2.5E0,1.8E1,2.3425E1,1.6920834E1,2.4329166E1,1.1995833E1,9.8E0,2.235E1,1.8304167E1,9.4541664E1,1.2E0,4.5E0,5.9E1,1.96E1,1.04E1,9.9041664E1,1.98625E1,7.3E1,2.1658333E1,1.6708334E1,1.4E1,1.2154166E1,9.575E1,2.65875E1,5.15E1,9.7E1,1.71E1,-3.5201464E-2,5.9428614E-2,-8.1424534E-2,-3.811407E-2,-5.6777664E-2,-3.051107E-2,4.256866E-2,-7.482525E-2,-4.2965226E-2,-8.741274E-2,-8.564305E-2,-1.7922467E-2,5.1114004E-2,-7.6139845E-2,6.045444E-2,-2.7800057E-2,-2.986384E-2,-6.6289835E-2,3.6722773E-3,-8.449944E-2,-1.4308452E-2,-6.501382E-2,2.4028221E-1,1.1028195E-2,-1.637934E-2,2.653837E-3,8.025443E-2,-3.234487E-4,5.712855E-2,2.8443098E-1,6.838506E-2,7.0422203E-3,5.5272103E-4,2.0256718E-1,-7.030102E-2,-2.5960518E-2,3.100037E-3,8.199831E-2,1.5224168E-2,9.074954E-2,4.595625E-2,2.8788382E-1,1.510414E-1,4.7373615E-2,-7.3372945E-2,1.6132268E-1,5.1125634E-2,1.17946945E-1,1.4682609E-1,3.670176E-1,6.0103502E-2,1.7296489E-1,3.393967E-1,1.1833417E-1,2.7616417E-1,4.5281845E-1,-6.869421E-2,4.8454512E-2,6.0019333E-2,2.0857142E-1,-3.191894E-2,5.6622393E-2,5.4489E-1,1.516453E-1],"split_indices":[3,5,3,1,3,5,4,5,4,5,5,5,3,3,5,4,4,0,5,4,4,2,4,0,2,2,4,5,4,5,0,0,3,4,4,5,3,0,4,4,4,4,0,4,4,5,3,2,1,3,3,5,4,1,4,4,0,4,5,4,3,1,0,0,0,0,0,0,0,0,0,0,0,0,0,0,0,0,0,0,0,0,0,0,0,0,0,0,0,0,0,0,0,0,0,0,0,0,0,0,0,0,0,0,0,0,0,0,0,0,0,0,0,0,0,0,0,0,0,0,0,0,0,0,0,0,0],"split_type":[0,0,0,0,0,0,0,0,0,0,0,0,0,0,0,0,0,0,0,0,0,0,0,0,0,0,0,0,0,0,0,0,0,0,0,0,0,0,0,0,0,0,0,0,0,0,0,0,0,0,0,0,0,0,0,0,0,0,0,0,0,0,0,0,0,0,0,0,0,0,0,0,0,0,0,0,0,0,0,0,0,0,0,0,0,0,0,0,0,0,0,0,0,0,0,0,0,0,0,0,0,0,0,0,0,0,0,0,0,0,0,0,0,0,0,0,0,0,0,0,0,0,0,0,0,0,0],"sum_hessian":[2.5007E4,1.8184E4,6.823E3,6.714E3,1.147E4,5.827E3,9.96E2,5.717E3,9.97E2,3.721E3,7.749E3,1.667E3,4.16E3,4.14E2,5.82E2,3.134E3,2.583E3,7.1E2,2.87E2,3.281E3,4.4E2,7.359E3,3.9E2,6.19E2,1.048E3,3.161E3,9.99E2,2.42E2,1.72E2,1.77E2,4.05E2,2.201E3,9.33E2,2.334E3,2.49E2,4.93E2,2.17E2,1.29E2,1.58E2,2.905E3,3.76E2,8.9E1,3.51E2,7.059E3,3E2,3.8E1,3.52E2,3.31E2,2.88E2,8.29E2,2.19E2,2.954E3,2.07E2,2.75E2,7.24E2,4.3E1,1.99E2,5.1E1,1.21E2,1.6E1,1.61E2,1.7E1,3.88E2,2.171E3,3E1,5.78E2,3.55E2,4.01E2,1.933E3,2.19E2,3E1,3.81E2,1.12E2,2.06E2,1.1E1,5E0,1.24E2,3.2E1,1.26E2,1.778E3,1.127E3,3.3E2,4.6E1,3.5E1,5.4E1,4E0,3.47E2,5.514E3,1.545E3,9.7E1,2.03E2,2.9E1,9E0,1.29E2,2.23E2,3.25E2,6E0,5.4E1,2.34E2,7.93E2,3.6E1,1.19E2,1E2,2.947E3,7E0,1.06E2,1.01E2,1.2E1,2.63E2,3.98E2,3.26E2,1.6E1,2.7E1,4.8E1,1.51E2,1.9E1,3.2E1,4.4E1,7.7E1,1.5E1,1E0,1.53E2,8E0,1E1,7E0,2E0,3.86E2],"tree_param":{"num_deleted":"0","num_feature":"6","num_nodes":"127","size_leaf_vector":"1"}},{"base_weights":[7.7809845E-3,-1.4423716E-1,8.554761E-1,-2.0994772E-1,2.4045588E-1,5.8970875E-1,1.5426732E0,-3.3874953E-1,-1.3599914E-1,-7.059273E-2,3.8366783E-1,1.384849E-1,6.9034195E-1,2.1894875E0,1.0890948E0,-4.1974562E-1,-2.7816907E-1,-2.7968958E-1,-6.628618E-2,1.9034002E0,-8.877911E-2,2.890766E-1,7.389551E-1,4.17088E-1,-1.2281071E-2,1.3141946E0,6.32937E-1,1.537323E0,3.151588E0,8.4262836E-1,1.6200945E0,-2.0693175E-1,-5.4726934E-1,-3.3045772E-1,1.974661E-1,-3.053584E-1,3.795464E-1,-8.742588E-2,3.1330964E-1,-4.303351E-2,2.248909E-1,-1.0349579E-1,1.3387868E0,1.1968017E0,2.6794496E-1,5.424522E-1,2.5725532E0,3.202887E-1,2.188421E0,-1.3239112E-1,3.4966362E-1,1.0235716E0,1.8658241E0,4.8297286E-1,7.9231584E-1,1.0362664E0,2.2933974E0,2.0502324E0,3.8097587E0,9.524858E-1,1.8580246E-1,3.3165126E0,1.3211756E0,-2.1744898E-2,1.6855995E-1,-2.1252995E-2,-6.2362075E-2,-2.8160557E-2,-5.3577323E-2,1.0129742E-2,9.831096E-2,-1.8260306E-2,-4.1305546E-2,1.5599473E-2,2.5858673E-1,-1.3030303E-2,6.276287E-3,2.6387263E-2,1.6963536E-1,-4.0706087E-2,-2.3997086E-3,3.6807373E-1,2.9320708E-2,1.7497185E-1,-3.194231E-2,2.9050827E-2,-4.1571226E-2,9.6238054E-2,1.814063E-2,5.731919E-1,-4.2393535E-2,-9.167786E-2,4.2068094E-2,5.425203E-3,2.4484108E-1,1.0892858E-1,-1.8316584E-2,-3.9950114E-2,4.713582E-2,4.4183545E-2,1.4004792E-1,3.0480793E-1,1.5629394E-1,-1.261048E-2,5.7661086E-2,1.2019839E-1,6.851663E-2,1.649267E-1,1.8265905E-2,3.0472982E-1,7.200699E-2,3.0939284E-1,1.6695964E-1,9.21365E-2,4.0605006E-1,8.828523E-2,1.8371575E-1,-4.3466315E-3,6.8090364E-2,6.001784E-1,1.06798075E-1,6.8932273E-3,1.5467964E-1],"categories":[],"categories_nodes":[],"categories_segments":[],"categories_sizes":[],"default_left":[0,0,0,0,0,0,0,0,0,0,0,0,0,0,0,0,0,0,0,0,0,0,0,0,0,0,0,0,0,0,0,0,0,0,0,0,0,0,0,0,0,0,0,0,0,0,0,0,0,0,0,0,0,0,0,0,0,0,0,0,0,0,0,0,0,0,0,0,0,0,0,0,0,0,0,0,0,0,0,0,0,0,0,0,0,0,0,0,0,0,0,0,0,0,0,0,0,0,0,0,0,0,0,0,0,0,0,0,0,0,0,0,0,0,0,0,0,0,0,0,0,0,0],"id":3,"left_children":[1,3,5,7,9,11,13,15,17,19,21,23,25,27,29,31,33,35,37,39,41,43,45,47,49,51,53,55,57,59,61,63,65,67,69,71,73,75,77,-1,-1,79,81,83,85,87,89,91,93,95,97,99,101,103,105,107,109,111,113,115,117,119,121,-1,-1,-1,-1,-1,-1,-1,-1,-1,-1,-1,-1,-1,-1,-1,-1,-1,-1,-1,-1,-1,-1,-1,-1,-1,-1,-1,-1,-1,-1,-1,-1,-1,-1,-1,-1,-1,-1,-1,-1,-1,-1,-1,-1,-1,-1,-1,-1,-1,-1,-1,-1,-1,-1,-1,-1,-1,-1,-1,-1],"loss_changes":[3.2381152E3,5.386573E2,6.96937E2,1.7329407E2,1.385202E2,1.2509448E2,3.100664E2,3.2449646E1,1.1580904E2,3.5386665E1,7.1335846E1,2.1175072E1,7.9888794E1,2.6997705E2,8.082355E1,7.690671E1,9.457242E1,6.402957E1,6.251451E1,8.224716E0,2.0580349E1,3.1962112E1,1.5966187E2,2.9648174E1,1.43055E1,2.8389954E1,4.899707E1,9.7257324E1,1.19767944E2,3.092279E1,9.602234E1,2.156448E1,4.520703E1,3.419223E1,2.8384384E1,4.7993896E1,6.963482E1,4.7513584E1,2.76539E1,0E0,0E0,2.325447E1,2.3407742E1,3.2416058E1,2.551123E1,6.1228836E1,4.095111E2,2.1374117E1,4.860924E0,1.5521003E1,7.6641893E0,2.7008072E1,1.815358E1,6.0926743E1,4.3072205E1,8.342062E1,1.21163574E2,2.1848633E1,7.520105E1,2.1109497E1,7.1808043E0,1.6868985E2,4.792386E1,0E0,0E0,0E0,0E0,0E0,0E0,0E0,0E0,0E0,0E0,0E0,0E0,0E0,0E0,0E0,0E0,0E0,0E0,0E0,0E0,0E0,0E0,0E0,0E0,0E0,0E0,0E0,0E0,0E0,0E0,0E0,0E0,0E0,0E0,0E0,0E0,0E0,0E0,0E0,0E0,0E0,0E0,0E0,0E0,0E0,0E0,0E0,0E0,0E0,0E0,0E0,0E0,0E0,0E0,0E0,0E0,0E0,0E0,0E0,0E0],"parents":[2147483647,0,0,1,1,2,2,3,3,4,4,5,5,6,6,7,7,8,8,9,9,10,10,11,11,12,12,13,13,14,14,15,15,16,16,17,17,18,18,19,19,20,20,21,21,22,22,23,23,24,24,25,25,26,26,27,27,28,28,29,29,30,30,31,31,32,32,33,33,34,34,35,35,36,36,37,37,38,38,41,41,42,42,43,43,44,44,45,45,46,46,47,47,48,48,49,49,50,50,51,51,52,52,53,53,54,54,55,55,56,56,57,57,58,58,59,59,60,60,61,61,62,62],"right_children":[2,4,6,8,10,12,14,16,18,20,22,24,26,28,30,32,34,36,38,40,42,44,46,48,50,52,54,56,58,60,62,64,66,68,70,72,74,76,78,-1,-1,80,82,84,86,88,90,92,94,96,98,100,102,104,106,108,110,112,114,116,118,120,122,-1,-1,-1,-1,-1,-1,-1,-1,-1,-1,-1,-1,-1,-1,-1,-1,-1,-1,-1,-1,-1,-1,-1,-1,-1,-1,-1,-1,-1,-1,-1,-1,-1,-1,-1,-1,-1,-1,-1,-1,-1,-1,-1,-1,-1,-1,-1,-1,-1,-1,-1,-1,-1,-1,-1,-1,-1,-1,-1,-1],"split_conditions":[1.08E1,4.1E0,2.45E1,8.075E1,8.6833336E1,8.6791664E1,1.8883333E1,7.6166664E1,1E-1,1.1995833E1,9.4125E1,2.15E1,1.4408334E1,3.51E1,9.5125E1,1.7575E1,2.4933332E1,9.1875E1,9.2625E1,4.7E1,6E0,4.2E0,2.07625E1,2.42E1,5E-1,1E2,1.65E1,1.6920834E1,1.5183333E1,2.4158333E1,9.5541664E1,2.9E0,6.9458336E1,9.5E1,1.8E0,1.6304167E1,1.7725E1,2.235E1,9.6791664E1,-4.303351E-2,2.248909E-1,8.075E1,1.9E1,2.1541666E1,9.375E1,7.4E0,2.23125E1,5.8E1,4.4E1,1.11E1,9.1E1,1.43E1,1.1808333E1,1.6E1,1.81E1,1.4791667E1,9.7916664E1,1.1370833E1,1.33E1,5.15E1,2.5883333E1,1.88E1,1.9279167E1,-2.1744898E-2,1.6855995E-1,-2.1252995E-2,-6.2362075E-2,-2.8160557E-2,-5.3577323E-2,1.0129742E-2,9.831096E-2,-1.8260306E-2,-4.1305546E-2,1.5599473E-2,2.5858673E-1,-1.3030303E-2,6.276287E-3,2.6387263E-2,1.6963536E-1,-4.0706087E-2,-2.3997086E-3,3.6807373E-1,2.9320708E-2,1.7497185E-1,-3.194231E-2,2.9050827E-2,-4.1571226E-2,9.6238054E-2,1.814063E-2,5.731919E-1,-4.2393535E-2,-9.167786E-2,4.2068094E-2,5.425203E-3,2.4484108E-1,1.0892858E-1,-1.8316584E-2,-3.9950114E-2,4.713582E-2,4.4183545E-2,1.4004792E-1,3.0480793E-1,1.5629394E-1,-1.261048E-2,5.7661086E-2,1.2019839E-1,6.851663E-2,1.649267E-1,1.8265905E-2,3.0472982E-1,7.200699E-2,3.0939284E-1,1.6695964E-1,9.21365E-2,4.0605006E-1,8.828523E-2,1.8371575E-1,-4.3466315E-3,6.8090364E-2,6.001784E-1,1.06798075E-1,6.8932273E-3,1.5467964E-1],"split_indices":[3,3,3,5,5,5,4,5,3,4,5,4,4,3,5,4,4,5,5,1,2,3,4,0,2,1,3,4,4,4,5,3,5,1,3,4,4,4,5,0,0,5,0,4,5,3,4,1,1,3,1,3,4,0,3,4,5,4,0,3,4,0,4,0,0,0,0,0,0,0,0,0,0,0,0,0,0,0,0,0,0,0,0,0,0,0,0,0,0,0,0,0,0,0,0,0,0,0,0,0,0,0,0,0,0,0,0,0,0,0,0,0,0,0,0,0,0,0,0,0,0,0,0],"split_type":[0,0,0,0,0,0,0,0,0,0,0,0,0,0,0,0,0,0,0,0,0,0,0,0,0,0,0,0,0,0,0,0,0,0,0,0,0,0,0,0,0,0,0,0,0,0,0,0,0,0,0,0,0,0,0,0,0,0,0,0,0,0,0,0,0,0,0,0,0,0,0,0,0,0,0,0,0,0,0,0,0,0,0,0,0,0,0,0,0,0,0,0,0,0,0,0,0,0,0,0,0,0,0,0,0,0,0,0,0,0,0,0,0,0,0,0,0,0,0,0,0,0,0],"sum_hessian":[2.5126E4,2.1306E4,3.82E3,1.8198E4,3.108E3,2.756E3,1.064E3,6.636E3,1.1562E4,9.8E2,2.128E3,5.03E2,2.253E3,4.37E2,6.27E2,2.837E3,3.799E3,3.776E3,7.786E3,8E0,9.72E2,1.682E3,4.46E2,1.76E2,3.27E2,1.88E2,2.065E3,2.62E2,1.75E2,4.3E2,1.97E2,1.064E3,1.773E3,3.423E3,3.76E2,3.635E3,1.41E2,7.376E3,4.1E2,1E0,7E0,9.63E2,9E0,3.7E1,1.645E3,4.04E2,4.2E1,1.68E2,8E0,2.46E2,8.1E1,1.25E2,6.3E1,1.066E3,9.99E2,1.59E2,1.03E2,6.7E1,1.08E2,3.68E2,6.2E1,2.8E1,1.69E2,1.059E3,5E0,3.3E2,1.443E3,2.767E3,6.56E2,3.36E2,4E1,1.7E3,1.935E3,1.29E2,1.2E1,5.738E3,1.638E3,3.97E2,1.3E1,1.99E2,7.64E2,2E0,7E0,2.7E1,1E1,1.593E3,5.2E1,1.86E2,2.18E2,2E1,2.2E1,1.2E1,1.56E2,1E0,7E0,9E0,2.37E2,1.1E1,7E1,5E1,7.5E1,1.1E1,5.2E1,1.42E2,9.24E2,2.05E2,7.94E2,9.2E1,6.7E1,6.9E1,3.4E1,1.6E1,5.1E1,9E0,9.9E1,3.43E2,2.5E1,4.3E1,1.9E1,1.2E1,1.6E1,2.6E1,1.43E2],"tree_param":{"num_deleted":"0","num_feature":"6","num_nodes":"123","size_leaf_vector":"1"}},{"base_weights":[-5.7086083E-3,-1.9199783E-1,5.0519603E-1,-2.8291005E-1,-1.042221E-1,2.7488565E-1,9.802695E-1,-4.7269756E-1,-2.5054786E-1,-1.9862655E-1,7.1391E-2,-4.9666844E-2,4.0657437E-1,9.0847176E-1,3.0558586E0,-4.287258E-1,-7.576973E-1,-3.5357216E-1,-1.9909689E-1,-2.2729005E-1,9.192052E-2,8.3345586E-1,4.743438E-2,-2.1762672E-1,4.4369828E-2,8.544587E-1,3.557243E-1,1.3420577E0,6.7422384E-1,3.9221117E0,1.5235907E0,-6.954226E-1,-3.8343152E-1,-1.0060556E-1,-7.969113E-1,-1.1118435E-1,-4.1461545E-1,-4.989891E-1,-1.5330622E-1,-1.5199956E-1,-3.9478105E-1,1.7958497E-1,-2.8490895E-1,-4.1989145E-1,1.4026393E0,-9.742573E-2,1.013386E-1,8.692206E-1,-2.4556689E-1,1.3893971E-2,1.4353287E0,4.624234E-1,1.5765553E0,1.7720798E-1,4.4124505E-1,1.1838756E0,2.1796334E0,2.5817123E-1,8.797194E-1,4.4414244E0,2.670812E0,2.853902E0,4.9492428E-1,-7.48791E-2,1.1621256E-1,-1.13170445E-2,-4.4652008E-2,1.6829772E-2,-8.737802E-2,6.1959367E-2,-8.180929E-2,-2.2027807E-2,6.0507E-2,-3.651635E-2,-6.4011306E-2,-3.1676557E-2,-6.299246E-2,2.2369798E-3,-2.4973853E-2,1.9464461E-2,-1.9479074E-2,-4.147311E-2,1.8507335E-2,3.383516E-2,-5.9124785E-3,-8.566149E-2,-1.7122814E-2,1.6654134E-3,-6.8265155E-2,1.9313279E-1,3.9489444E-2,3.796419E-2,-1.8397296E-2,-1.41114E-2,2.0441921E-2,1.71728E-1,-6.615186E-2,-7.4961655E-2,-2.0476114E-2,3.0153751E-2,-1.121312E-2,2.0008023E-1,2.6089845E-2,7.5561674E-3,1.310082E-1,2.8128695E-1,1.2018805E-1,7.476496E-2,1.174116E-2,3.7386905E-2,9.0006255E-2,2.5957084E-1,1.11612976E-1,1.292827E-1,2.7778053E-1,-5.4776188E-2,3.2615095E-2,-3.626487E-2,9.30494E-2,3.2245216E-1,5.3807384E-1,2.2351082E-2,3.0044612E-1,3.6853027E-2,3.3141237E-1,-1.487858E-2,1.2376964E-1],"categories":[],"categories_nodes":[],"categories_segments":[],"categories_sizes":[],"default_left":[0,0,0,0,0,0,0,0,0,0,0,0,0,0,0,0,0,0,0,0,0,0,0,0,0,0,0,0,0,0,0,0,0,0,0,0,0,0,0,0,0,0,0,0,0,0,0,0,0,0,0,0,0,0,0,0,0,0,0,0,0,0,0,0,0,0,0,0,0,0,0,0,0,0,0,0,0,0,0,0,0,0,0,0,0,0,0,0,0,0,0,0,0,0,0,0,0,0,0,0,0,0,0,0,0,0,0,0,0,0,0,0,0,0,0,0,0,0,0,0,0,0,0,0,0,0,0],"id":4,"left_children":[1,3,5,7,9,11,13,15,17,19,21,23,25,27,29,31,33,35,37,39,41,43,45,47,49,51,53,55,57,59,61,63,65,67,69,71,73,75,77,79,81,83,85,87,89,91,93,95,97,99,101,103,105,107,109,111,113,115,117,119,121,123,125,-1,-1,-1,-1,-1,-1,-1,-1,-1,-1,-1,-1,-1,-1,-1,-1,-1,-1,-1,-1,-1,-1,-1,-1,-1,-1,-1,-1,-1,-1,-1,-1,-1,-1,-1,-1,-1,-1,-1,-1,-1,-1,-1,-1,-1,-1,-1,-1,-1,-1,-1,-1,-1,-1,-1,-1,-1,-1,-1,-1,-1,-1,-1,-1],"loss_changes":[2.3961533E3,1.4719147E2,7.357605E2,5.5539795E1,1.5565463E2,1.9371747E2,3.2447754E2,1.6204803E1,4.097827E1,5.0872223E1,5.9896545E1,2.0684511E1,7.312244E1,2.1482263E2,9.0919556E1,1.3564774E1,4.429077E0,3.809836E1,7.087811E1,7.002905E1,1.818713E1,7.192741E1,2.4872366E1,1.4485802E1,3.558821E1,9.212361E1,4.414987E1,9.599182E1,1.1784412E2,1.8029297E1,3.6904045E1,1.7227371E1,1.6675873E1,2.4340563E0,5.457527E0,4.0765488E1,2.2726776E1,1.6120392E1,7.5968346E1,5.6938484E1,2.0008606E1,1.6923023E1,6.6124907E0,3.6819844E0,3.5999374E1,3.574344E1,5.8035656E1,1.6713905E1,9.287279E0,2.986783E1,1.1431961E1,7.00773E1,4.988907E1,3.1975927E1,6.019171E1,5.7168274E1,5.84729E1,2.5271149E1,5.8624146E1,1.808435E1,1.239312E1,1.2504501E1,8.312361E0,0E0,0E0,0E0,0E0,0E0,0E0,0E0,0E0,0E0,0E0,0E0,0E0,0E0,0E0,0E0,0E0,0E0,0E0,0E0,0E0,0E0,0E0,0E0,0E0,0E0,0E0,0E0,0E0,0E0,0E0,0E0,0E0,0E0,0E0,0E0,0E0,0E0,0E0,0E0,0E0,0E0,0E0,0E0,0E0,0E0,0E0,0E0,0E0,0E0,0E0,0E0,0E0,0E0,0E0,0E0,0E0,0E0,0E0,0E0,0E0,0E0,0E0,0E0,0E0],"parents":[2147483647,0,0,1,1,2,2,3,3,4,4,5,5,6,6,7,7,8,8,9,9,10,10,11,11,12,12,13,13,14,14,15,15,16,16,17,17,18,18,19,19,20,20,21,21,22,22,23,23,24,24,25,25,26,26,27,27,28,28,29,29,30,30,31,31,32,32,33,33,34,34,35,35,36,36,37,37,38,38,39,39,40,40,41,41,42,42,43,43,44,44,45,45,46,46,47,47,48,48,49,49,50,50,51,51,52,52,53,53,54,54,55,55,56,56,57,57,58,58,59,59,60,60,61,61,62,62],"right_children":[2,4,6,8,10,12,14,16,18,20,22,24,26,28,30,32,34,36,38,40,42,44,46,48,50,52,54,56,58,60,62,64,66,68,70,72,74,76,78,80,82,84,86,88,90,92,94,96,98,100,102,104,106,108,110,112,114,116,118,120,122,124,126,-1,-1,-1,-1,-1,-1,-1,-1,-1,-1,-1,-1,-1,-1,-1,-1,-1,-1,-1,-1,-1,-1,-1,-1,-1,-1,-1,-1,-1,-1,-1,-1,-1,-1,-1,-1,-1,-1,-1,-1,-1,-1,-1,-1,-1,-1,-1,-1,-1,-1,-1,-1,-1,-1,-1,-1,-1,-1,-1,-1,-1,-1,-1,-1],"split_conditions":[4.3E0,8.325E1,1.68E1,5.8E1,9E-1,8.6708336E1,5.15E1,8.0625E1,7.6916664E1,2.2116667E1,1.2620833E1,8.3041664E1,1.4654166E1,1.8791666E1,1.955E1,4.4E1,1.66E1,1.4033334E1,1.51E1,1.79875E1,2.40875E1,8.7125E1,1.74875E1,1.1995833E1,2.5883333E1,2E-1,1.85E1,3.51E1,9E1,1.72E1,1E-1,7.9958336E1,6.9458336E1,5.5E1,3.8E1,1E-1,2.3854166E1,1.2470834E1,2.0158333E1,8.4708336E1,9.1875E1,9.3E1,1E-1,1.1370833E1,2.9E0,1.2E0,8.5416664E1,7.8E0,7.3416664E1,2.085E1,2.6291666E1,9.5541664E1,1.18E1,4.9E0,9.4541664E1,1.1808333E1,1.4791667E1,8.1958336E1,1.68E1,1.5941667E1,1.74E1,2.03E1,2.285E1,-7.48791E-2,1.1621256E-1,-1.13170445E-2,-4.4652008E-2,1.6829772E-2,-8.737802E-2,6.1959367E-2,-8.180929E-2,-2.2027807E-2,6.0507E-2,-3.651635E-2,-6.4011306E-2,-3.1676557E-2,-6.299246E-2,2.2369798E-3,-2.4973853E-2,1.9464461E-2,-1.9479074E-2,-4.147311E-2,1.8507335E-2,3.383516E-2,-5.9124785E-3,-8.566149E-2,-1.7122814E-2,1.6654134E-3,-6.8265155E-2,1.9313279E-1,3.9489444E-2,3.796419E-2,-1.8397296E-2,-1.41114E-2,2.0441921E-2,1.71728E-1,-6.615186E-2,-7.4961655E-2,-2.0476114E-2,3.0153751E-2,-1.121312E-2,2.0008023E-1,2.6089845E-2,7.5561674E-3,1.310082E-1,2.8128695E-1,1.2018805E-1,7.476496E-2,1.174116E-2,3.7386905E-2,9.0006255E-2,2.5957084E-1,1.11612976E-1,1.292827E-1,2.7778053E-1,-5.4776188E-2,3.2615095E-2,-3.626487E-2,9.30494E-2,3.2245216E-1,5.3807384E-1,2.2351082E-2,3.0044612E-1,3.6853027E-2,3.3141237E-1,-1.487858E-2,1.2376964E-1],"split_indices":[3,5,3,1,3,5,3,5,5,4,4,5,4,4,4,1,0,4,4,4,4,5,4,4,4,2,0,3,5,0,2,5,5,1,1,3,4,4,4,5,5,1,3,4,3,3,5,3,5,4,4,5,0,3,5,4,4,5,0,4,0,0,4,0,0,0,0,0,0,0,0,0,0,0,0,0,0,0,0,0,0,0,0,0,0,0,0,0,0,0,0,0,0,0,0,0,0,0,0,0,0,0,0,0,0,0,0,0,0,0,0,0,0,0,0,0,0,0,0,0,0,0,0,0,0,0,0],"split_type":[0,0,0,0,0,0,0,0,0,0,0,0,0,0,0,0,0,0,0,0,0,0,0,0,0,0,0,0,0,0,0,0,0,0,0,0,0,0,0,0,0,0,0,0,0,0,0,0,0,0,0,0,0,0,0,0,0,0,0,0,0,0,0,0,0,0,0,0,0,0,0,0,0,0,0,0,0,0,0,0,0,0,0,0,0,0,0,0,0,0,0,0,0,0,0,0,0,0,0,0,0,0,0,0,0,0,0,0,0,0,0,0,0,0,0,0,0,0,0,0,0,0,0,0,0,0,0],"sum_hessian":[2.5174E4,1.8448E4,6.726E3,9.061E3,9.387E3,4.531E3,2.195E3,1.318E3,7.743E3,6.105E3,3.282E3,1.308E3,3.223E3,2.123E3,7.2E1,1.144E3,1.74E2,2.577E3,5.166E3,5.557E3,5.48E2,9.9E1,3.183E3,4.69E2,8.39E2,3.27E2,2.896E3,7.43E2,1.38E3,4.5E1,2.7E1,1.64E2,9.8E2,1E1,1.64E2,5.19E2,2.058E3,6.83E2,4.483E3,3.835E3,1.722E3,4.45E2,1.03E2,3.1E1,6.8E1,8.63E2,2.32E3,1.1E1,4.58E2,8.22E2,1.7E1,2.13E2,1.14E2,9.39E2,1.957E3,6.27E2,1.16E2,4.57E2,9.23E2,3E1,1.5E1,1.1E1,1.6E1,1.6E2,4E0,1.86E2,7.94E2,8E0,2E0,2E0,1.62E2,4.51E2,6.8E1,1.69E3,3.68E2,2.87E2,3.96E2,1.589E3,2.894E3,4.21E2,3.414E3,1.665E3,5.7E1,2.67E2,1.78E2,1.6E1,8.7E1,1.2E1,1.9E1,4.4E1,2.4E1,1.32E2,7.31E2,6.92E2,1.628E3,7E0,4E0,3.3E1,4.25E2,2.5E2,5.72E2,1.1E1,6E0,1.47E2,6.6E1,2.5E1,8.9E1,8.8E1,8.51E2,1.708E3,2.49E2,2.7E1,6E2,4.8E1,6.8E1,3.5E1,4.22E2,3.6E1,8.87E2,1.5E1,1.5E1,2E0,1.3E1,2E0,9E0,9E0,7E0],"tree_param":{"num_deleted":"0","num_feature":"6","num_nodes":"127","size_leaf_vector":"1"}},{"base_weights":[-8.493368E-3,-9.774628E-2,8.97534E-1,-1.9292644E-1,1.7936441E-1,1.342705E0,6.7227983E-1,-2.0748271E-1,2.1527335E-1,-6.317189E-2,3.029875E-1,1.2117257E0,3.7959793E0,4.9440202E-1,1.1241988E0,-2.933269E-1,-1.4987014E-1,1.896846E-1,1.6778941E0,1.4925084E-1,-1.8491532E-1,2.5413337E-1,5.496778E-1,1.0807455E0,1.8663502E0,2.0869315E0,4.2544103E0,4.022393E-1,9.628363E-1,8.621235E-1,2.6696284E0,-5.131761E-1,-2.697397E-1,-4.138969E-1,-1.20711535E-1,2.66038E-1,-1.664961E-1,7.3267347E-1,2.1859288E-1,-3.152368E-2,7.070723E-1,-7.433957E-1,-1.217139E-1,2.2615056E-1,5.9320325E-1,1.0214198E0,3.1472263E-1,2.3497443E0,1.0126573E0,2.9255533E0,1.5082926E0,2.45489E-1,-6.1234772E-2,4.684287E-1,1.2541442E0,4.5769957E-1,-1.2447579E-1,1.8806885E0,7.2336084E-1,2.6125953E-1,1.5615762E0,6.436369E0,1.4106765E0,-2.5341416E-2,-6.1961234E-2,-2.8386319E-2,-3.135955E-3,5.5481162E-2,-5.2191526E-2,1.3860033E-1,-1.2392214E-2,2.276445E-2,1.0514834E-1,-3.2544084E-2,6.021563E-2,9.170177E-2,-2.3517609E-4,-4.969829E-2,4.9276585E-3,5.8432993E-2,2.3460865E-1,-8.07276E-2,-5.8613224E-3,-2.392392E-2,4.302915E-3,1.6709411E-1,2.1979323E-2,4.299147E-2,1.0840517E-1,7.487635E-2,6.481466E-1,1.0350599E-1,2.3613935E-2,2.558274E-1,1.5789227E-1,3.5580974E-2,1.14355825E-1,1.0561849E-1,3.3672938E-1,1.9784306E-1,6.9954515E-2,-9.911769E-2,2.0632687E-1,2.5228301E-2,6.570634E-2,7.1894936E-2,-2.3101136E-2,5.2325265E-3,2.4012093E-1,6.6451125E-2,3.2285532E-1,1.823352E-2,2.7432954E-1,3.6172423E-1,1.1938455E-1,7.853585E-2,7.7836746E-1,4.923955E-3,1.9297777E-1],"categories":[],"categories_nodes":[],"categories_segments":[],"categories_sizes":[],"default_left":[0,0,0,0,0,0,0,0,0,0,0,0,0,0,0,0,0,0,0,0,0,0,0,0,0,0,0,0,0,0,0,0,0,0,0,0,0,0,0,0,0,0,0,0,0,0,0,0,0,0,0,0,0,0,0,0,0,0,0,0,0,0,0,0,0,0,0,0,0,0,0,0,0,0,0,0,0,0,0,0,0,0,0,0,0,0,0,0,0,0,0,0,0,0,0,0,0,0,0,0,0,0,0,0,0,0,0,0,0,0,0,0,0,0,0,0,0,0,0],"id":5,"left_children":[1,3,5,7,9,11,13,15,17,19,21,23,25,27,29,31,33,35,37,39,41,43,45,47,49,51,53,55,57,59,61,63,65,67,69,71,73,75,-1,77,79,81,83,85,87,89,91,93,95,97,99,-1,-1,-1,101,103,105,107,109,111,113,115,117,-1,-1,-1,-1,-1,-1,-1,-1,-1,-1,-1,-1,-1,-1,-1,-1,-1,-1,-1,-1,-1,-1,-1,-1,-1,-1,-1,-1,-1,-1,-1,-1,-1,-1,-1,-1,-1,-1,-1,-1,-1,-1,-1,-1,-1,-1,-1,-1,-1,-1,-1,-1,-1,-1,-1,-1],"loss_changes":[2.0397605E3,6.0566736E2,2.259231E2,1.0160309E2,1.7604982E2,2.3928845E2,1.20345276E2,8.1579956E1,2.1726025E1,5.1310097E1,4.672992E1,5.9889404E1,2.0893616E1,4.628183E1,1.6942645E2,3.4226746E1,7.599733E1,1.5817747E1,3.2004757E0,7.292955E1,4.441872E1,3.0683289E1,7.0836685E1,4.9808533E1,4.071884E1,1.1435471E1,3.1527832E1,2.6493622E1,3.754474E1,1.5257248E2,2.8019122E2,1.7565414E1,2.0147888E1,1.0304439E2,4.3210556E1,1.4175209E1,1.2779809E1,6.796448E-1,0E0,2.0596737E1,3.423736E1,5.5519257E0,2.1966208E1,2.7206146E1,1.9330986E1,3.1224347E2,2.4096352E1,7.8286743E-1,4.9032715E1,2.0390976E1,3.3216278E1,0E0,0E0,0E0,1.1128785E1,3.337442E1,7.9834523E0,3.4135597E1,1.8789574E1,3.8090736E1,1.226781E2,1.0809161E2,3.3120987E1,0E0,0E0,0E0,0E0,0E0,0E0,0E0,0E0,0E0,0E0,0E0,0E0,0E0,0E0,0E0,0E0,0E0,0E0,0E0,0E0,0E0,0E0,0E0,0E0,0E0,0E0,0E0,0E0,0E0,0E0,0E0,0E0,0E0,0E0,0E0,0E0,0E0,0E0,0E0,0E0,0E0,0E0,0E0,0E0,0E0,0E0,0E0,0E0,0E0,0E0,0E0,0E0,0E0,0E0,0E0,0E0],"parents":[2147483647,0,0,1,1,2,2,3,3,4,4,5,5,6,6,7,7,8,8,9,9,10,10,11,11,12,12,13,13,14,14,15,15,16,16,17,17,18,18,19,19,20,20,21,21,22,22,23,23,24,24,25,25,26,26,27,27,28,28,29,29,30,30,31,31,32,32,33,33,34,34,35,35,36,36,37,37,39,39,40,40,41,41,42,42,43,43,44,44,45,45,46,46,47,47,48,48,49,49,50,50,54,54,55,55,56,56,57,57,58,58,59,59,60,60,61,61,62,62],"right_children":[2,4,6,8,10,12,14,16,18,20,22,24,26,28,30,32,34,36,38,40,42,44,46,48,50,52,54,56,58,60,62,64,66,68,70,72,74,76,-1,78,80,82,84,86,88,90,92,94,96,98,100,-1,-1,-1,102,104,106,108,110,112,114,116,118,-1,-1,-1,-1,-1,-1,-1,-1,-1,-1,-1,-1,-1,-1,-1,-1,-1,-1,-1,-1,-1,-1,-1,-1,-1,-1,-1,-1,-1,-1,-1,-1,-1,-1,-1,-1,-1,-1,-1,-1,-1,-1,-1,-1,-1,-1,-1,-1,-1,-1,-1,-1,-1,-1,-1,-1],"split_conditions":[1.65E1,2.7E0,1.855E1,9.1875E1,8.6791664E1,5.15E1,9.4916664E1,1E-1,9.6791664E1,2.0979166E1,9.475E1,3.51E1,1.33E1,1.8E0,2.1883333E1,5.7E1,7.5791664E1,1.8E0,1E-1,1.9954166E1,3.1E0,2.3966667E1,7.9E0,1.1808333E1,1E-1,1.18E1,1.72E1,2.4658333E1,2.08875E1,2.73E1,1.81E1,6.9458336E1,9.0541664E1,1.5325E1,7.7E0,9.475E1,2.6E0,1.99E1,2.1859288E-1,1.19E1,1.13E1,8.625E1,7.1E0,1.0066667E1,1.13E1,2.08875E1,1.3695833E1,1.1583333E1,1.35E1,1.4654166E1,1E2,2.45489E-1,-6.1234772E-2,4.684287E-1,1.74E1,2.12E1,1.73E1,1.88E1,9.4541664E1,2.39E1,9.5541664E1,1.77E1,9.5541664E1,-2.5341416E-2,-6.1961234E-2,-2.8386319E-2,-3.135955E-3,5.5481162E-2,-5.2191526E-2,1.3860033E-1,-1.2392214E-2,2.276445E-2,1.0514834E-1,-3.2544084E-2,6.021563E-2,9.170177E-2,-2.3517609E-4,-4.969829E-2,4.9276585E-3,5.8432993E-2,2.3460865E-1,-8.07276E-2,-5.8613224E-3,-2.392392E-2,4.302915E-3,1.6709411E-1,2.1979323E-2,4.299147E-2,1.0840517E-1,7.487635E-2,6.481466E-1,1.0350599E-1,2.3613935E-2,2.558274E-1,1.5789227E-1,3.5580974E-2,1.14355825E-1,1.0561849E-1,3.3672938E-1,1.9784306E-1,6.9954515E-2,-9.911769E-2,2.0632687E-1,2.5228301E-2,6.570634E-2,7.1894936E-2,-2.3101136E-2,5.2325265E-3,2.4012093E-1,6.6451125E-2,3.2285532E-1,1.823352E-2,2.7432954E-1,3.6172423E-1,1.1938455E-1,7.853585E-2,7.7836746E-1,4.923955E-3,1.9297777E-1],"split_indices":[3,3,4,5,5,3,5,3,5,4,5,3,0,2,4,1,5,3,2,4,3,4,3,4,2,0,0,4,4,3,3,5,5,4,0,5,3,0,0,0,3,5,3,4,3,4,4,4,0,4,1,0,0,0,0,0,3,3,5,0,5,3,5,0,0,0,0,0,0,0,0,0,0,0,0,0,0,0,0,0,0,0,0,0,0,0,0,0,0,0,0,0,0,0,0,0,0,0,0,0,0,0,0,0,0,0,0,0,0,0,0,0,0,0,0,0,0,0,0],"split_type":[0,0,0,0,0,0,0,0,0,0,0,0,0,0,0,0,0,0,0,0,0,0,0,0,0,0,0,0,0,0,0,0,0,0,0,0,0,0,0,0,0,0,0,0,0,0,0,0,0,0,0,0,0,0,0,0,0,0,0,0,0,0,0,0,0,0,0,0,0,0,0,0,0,0,0,0,0,0,0,0,0,0,0,0,0,0,0,0,0,0,0,0,0,0,0,0,0,0,0,0,0,0,0,0,0,0,0,0,0,0,0,0,0,0,0,0,0,0,0],"sum_hessian":[2.5222E4,2.2961E4,2.261E3,1.7091E4,5.87E3,7.58E2,1.503E3,1.6503E4,5.88E2,1.982E3,3.888E3,7.21E2,3.7E1,1.08E3,4.23E2,6.626E3,9.877E3,5.79E2,9E0,7.22E2,1.26E3,3.247E3,6.41E2,6.03E2,1.18E2,9E0,2.8E1,9.04E2,1.76E2,3.63E2,6E1,6.4E2,5.986E3,9.81E2,8.896E3,4.77E2,1.02E2,4E0,5E0,5.46E2,1.76E2,1.27E2,1.133E3,3.001E3,2.46E2,2.12E2,4.29E2,2.9E1,5.74E2,2.8E1,9E1,8E0,1E0,2.4E1,4E0,8.18E2,8.6E1,3.5E1,1.41E2,1.96E2,1.67E2,1.4E1,4.6E1,1.87E2,4.53E2,5.651E3,3.35E2,9.8E1,8.83E2,1.8E1,8.878E3,4.56E2,2.1E1,8.5E1,1.7E1,3E0,1E0,8E1,4.66E2,1.65E2,1.1E1,1.16E2,1.1E1,6.61E2,4.72E2,1.2E1,2.989E3,1.86E2,6E1,2.03E2,9E0,4.1E1,3.88E2,2.1E1,8E0,9.6E1,4.78E2,6E0,2.2E1,5.6E1,3.4E1,1E0,3E0,4.04E2,4.14E2,9E0,7.7E1,8E0,2.7E1,1.39E2,2E0,1.91E2,5E0,2.4E1,1.43E2,3E0,1.1E1,1.3E1,3.3E1],"tree_param":{"num_deleted":"0","num_feature":"6","num_nodes":"119","size_leaf_vector":"1"}},{"base_weights":[5.030284E-3,-1.4884175E-1,4.1867644E-1,-1.9325604E-1,-2.852331E-2,3.0708227E-1,1.1143609E0,-4.715573E-1,-1.7380245E-1,-2.6474416E-1,7.834028E-2,1.04265906E-1,4.9342176E-1,1.6317325E0,7.4197227E-1,-5.1748055E-1,-1.7039953E-1,-1.3562208E-1,-2.6884767E-1,-9.681286E-3,-3.7629533E-1,2.5033143E-1,6.1660465E-3,-8.031643E-2,2.0872913E-1,9.159311E-1,4.4816548E-1,1.1132662E0,2.3489003E0,3.5831818E-1,9.116545E-1,-4.6948943E-1,-7.8131354E-1,1.4595605E-1,-2.1143849E-1,-2.1107729E-1,-6.3640565E-2,-3.0793765E-1,-2.3951605E-2,-3.0918503E-1,2.322628E-1,-4.6240225E-1,2.5540245E-1,1.6989453E0,1.758984E-1,-1.890954E-1,1.047122E-1,1.533062E0,-9.140776E-2,4.9078518E-1,1.334466E-1,4.0231907E-1,1.3835738E0,3.537294E-1,7.018762E-1,2.1661828E0,7.204018E-1,1.5247673E0,2.8097005E0,2.691872E-1,2.7497003E0,-9.749166E-1,9.4452703E-1,-7.549859E-2,-4.0784992E-2,-7.92832E-2,2.6589597E-2,-8.4005715E-3,-6.668363E-2,3.5067492E-3,-2.3360873E-2,9.780785E-3,-1.4017512E-2,-2.0722732E-2,-3.6644157E-2,-5.191452E-3,7.183962E-2,4.0986504E-2,-5.364498E-2,-1.9787787E-2,6.639256E-2,1.2108689E-1,-4.7622446E-2,-3.1276938E-2,9.563157E-2,3.1480375E-1,2.9597778E-2,3.5096917E-2,-9.3177095E-4,-1.4237313E-3,-3.831918E-2,-9.446172E-3,2.3408748E-2,-4.197627E-2,1.9284932E-1,-4.769842E-2,-4.571927E-3,-8.098441E-4,1.2325996E-1,2.6847029E-3,4.5286946E-2,2.535218E-2,3.2357633E-1,2.3079145E-1,1.1318463E-1,3.317146E-2,1.2498834E-1,5.75212E-2,3.123761E-1,1.1572963E-1,2.7314928E-1,-4.698851E-3,1.0077753E-1,1.7453547E-1,-1.2948821E-1,-1.4294902E-2,2.9919335E-1,-3.524634E-2,5.5837568E-2,-1.459409E-2,3.358017E-1,-1.2733114E-2,-1.0949589E-1,1.0898675E-1,5.1229257E-2],"categories":[],"categories_nodes":[],"categories_segments":[],"categories_sizes":[],"default_left":[0,0,0,0,0,0,0,0,0,0,0,0,0,0,0,0,0,0,0,0,0,0,0,0,0,0,0,0,0,0,0,0,0,0,0,0,0,0,0,0,0,0,0,0,0,0,0,0,0,0,0,0,0,0,0,0,0,0,0,0,0,0,0,0,0,0,0,0,0,0,0,0,0,0,0,0,0,0,0,0,0,0,0,0,0,0,0,0,0,0,0,0,0,0,0,0,0,0,0,0,0,0,0,0,0,0,0,0,0,0,0,0,0,0,0,0,0,0,0,0,0,0,0,0,0],"id":6,"left_children":[1,3,5,7,9,11,13,15,17,19,21,23,25,27,29,31,33,35,37,39,41,43,45,47,49,51,53,55,57,59,61,63,65,-1,67,69,71,73,75,77,79,81,83,85,87,89,91,93,95,97,99,101,103,105,107,109,111,113,115,117,119,121,123,-1,-1,-1,-1,-1,-1,-1,-1,-1,-1,-1,-1,-1,-1,-1,-1,-1,-1,-1,-1,-1,-1,-1,-1,-1,-1,-1,-1,-1,-1,-1,-1,-1,-1,-1,-1,-1,-1,-1,-1,-1,-1,-1,-1,-1,-1,-1,-1,-1,-1,-1,-1,-1,-1,-1,-1,-1,-1,-1,-1,-1,-1],"loss_changes":[1.5986599E3,9.782446E1,5.2834766E2,7.2308014E1,1.2464745E2,2.2179175E2,1.8008545E2,1.198555E1,4.532068E1,4.3756393E1,4.2203777E1,5.423793E1,5.8081238E1,1.4351318E2,3.541284E1,9.218048E0,8.134955E0,4.842906E1,3.4273438E1,3.4057034E1,5.8319183E1,1.08065E2,4.612427E1,1.8338848E1,3.807058E1,7.029854E1,6.599957E1,9.357974E1,5.7996582E1,3.5494675E1,2.448706E1,1.1007523E1,1.597969E0,0E0,6.617731E0,2.4155441E1,5.643296E1,1.8118439E1,1.029185E1,3.4536972E1,4.8407066E1,2.2363525E1,5.167196E1,9.8686676E1,3.1034882E1,2.7281757E1,4.107082E1,6.214964E0,1.778838E1,1.3989989E2,4.8305283E1,5.9048115E1,3.3220795E1,3.9378067E1,2.2797113E2,3.2199554E1,3.7316536E1,4.020076E1,5.6387085E1,2.9859545E1,1.1058872E1,5.728011E-1,2.2936768E1,0E0,0E0,0E0,0E0,0E0,0E0,0E0,0E0,0E0,0E0,0E0,0E0,0E0,0E0,0E0,0E0,0E0,0E0,0E0,0E0,0E0,0E0,0E0,0E0,0E0,0E0,0E0,0E0,0E0,0E0,0E0,0E0,0E0,0E0,0E0,0E0,0E0,0E0,0E0,0E0,0E0,0E0,0E0,0E0,0E0,0E0,0E0,0E0,0E0,0E0,0E0,0E0,0E0,0E0,0E0,0E0,0E0,0E0,0E0,0E0,0E0,0E0],"parents":[2147483647,0,0,1,1,2,2,3,3,4,4,5,5,6,6,7,7,8,8,9,9,10,10,11,11,12,12,13,13,14,14,15,15,16,16,17,17,18,18,19,19,20,20,21,21,22,22,23,23,24,24,25,25,26,26,27,27,28,28,29,29,30,30,31,31,32,32,34,34,35,35,36,36,37,37,38,38,39,39,40,40,41,41,42,42,43,43,44,44,45,45,46,46,47,47,48,48,49,49,50,50,51,51,52,52,53,53,54,54,55,55,56,56,57,57,58,58,59,59,60,60,61,61,62,62],"right_children":[2,4,6,8,10,12,14,16,18,20,22,24,26,28,30,32,34,36,38,40,42,44,46,48,50,52,54,56,58,60,62,64,66,-1,68,70,72,74,76,78,80,82,84,86,88,90,92,94,96,98,100,102,104,106,108,110,112,114,116,118,120,122,124,-1,-1,-1,-1,-1,-1,-1,-1,-1,-1,-1,-1,-1,-1,-1,-1,-1,-1,-1,-1,-1,-1,-1,-1,-1,-1,-1,-1,-1,-1,-1,-1,-1,-1,-1,-1,-1,-1,-1,-1,-1,-1,-1,-1,-1,-1,-1,-1,-1,-1,-1,-1,-1,-1,-1,-1,-1,-1,-1,-1,-1,-1],"split_conditions":[4.1E0,9E-1,2.54E1,5.5E1,8.2458336E1,9E1,1.9079166E1,4E-1,9.5E1,2.0116667E1,1.74E1,8.5333336E1,1.41E1,3.51E1,9.0083336E1,8.0041664E1,6.3666668E1,1E-1,9.0541664E1,1.73875E1,2.4933332E1,8.3333336E1,8.525E1,1.1583333E1,1.8791666E1,1E-1,2.1883333E1,9.5125E1,1.5325E1,5.15E1,1.9129168E1,4.3E1,8.7875E1,1.4595605E-1,2.93E1,6.875E1,1.82E1,1.6304167E1,2.0979166E1,6.9E1,8.0458336E1,6.9458336E1,2.1E0,1.5E0,8.9166664E1,1.9E0,2.0495832E1,6.4E0,5.8E1,1.68E1,2.3966667E1,9.9041664E1,1.16E1,3.1E0,9.575E1,1.65E1,1.4E1,1.82E1,1.33E1,2.2808332E1,1.88E1,1.23E1,4.14E1,-7.549859E-2,-4.0784992E-2,-7.92832E-2,2.6589597E-2,-8.4005715E-3,-6.668363E-2,3.5067492E-3,-2.3360873E-2,9.780785E-3,-1.4017512E-2,-2.0722732E-2,-3.6644157E-2,-5.191452E-3,7.183962E-2,4.0986504E-2,-5.364498E-2,-1.9787787E-2,6.639256E-2,1.2108689E-1,-4.7622446E-2,-3.1276938E-2,9.563157E-2,3.1480375E-1,2.9597778E-2,3.5096917E-2,-9.3177095E-4,-1.4237313E-3,-3.831918E-2,-9.446172E-3,2.3408748E-2,-4.197627E-2,1.9284932E-1,-4.769842E-2,-4.571927E-3,-8.098441E-4,1.2325996E-1,2.6847029E-3,4.5286946E-2,2.535218E-2,3.2357633E-1,2.3079145E-1,1.1318463E-1,3.317146E-2,1.2498834E-1,5.75212E-2,3.123761E-1,1.1572963E-1,2.7314928E-1,-4.698851E-3,1.0077753E-1,1.7453547E-1,-1.2948821E-1,-1.4294902E-2,2.9919335E-1,-3.524634E-2,5.5837568E-2,-1.459409E-2,3.358017E-1,-1.2733114E-2,-1.0949589E-1,1.0898675E-1,5.1229257E-2],"split_indices":[3,3,3,1,5,5,4,3,1,4,0,5,4,3,5,5,5,3,5,4,4,5,5,4,4,2,4,5,4,3,4,1,5,0,0,5,0,4,4,1,5,5,3,3,5,3,4,0,1,0,4,5,0,2,5,4,0,0,0,4,0,0,3,0,0,0,0,0,0,0,0,0,0,0,0,0,0,0,0,0,0,0,0,0,0,0,0,0,0,0,0,0,0,0,0,0,0,0,0,0,0,0,0,0,0,0,0,0,0,0,0,0,0,0,0,0,0,0,0,0,0,0,0,0,0],"split_type":[0,0,0,0,0,0,0,0,0,0,0,0,0,0,0,0,0,0,0,0,0,0,0,0,0,0,0,0,0,0,0,0,0,0,0,0,0,0,0,0,0,0,0,0,0,0,0,0,0,0,0,0,0,0,0,0,0,0,0,0,0,0,0,0,0,0,0,0,0,0,0,0,0,0,0,0,0,0,0,0,0,0,0,0,0,0,0,0,0,0,0,0,0,0,0,0,0,0,0,0,0,0,0,0,0,0,0,0,0,0,0,0,0,0,0,0,0,0,0,0,0,0,0,0,0],"sum_hessian":[2.5115E4,1.8306E4,6.809E3,1.337E4,4.936E3,5.869E3,9.4E2,8.72E2,1.2498E4,1.537E3,3.399E3,2.811E3,3.058E3,3.92E2,5.48E2,7.56E2,1.16E2,8.918E3,3.58E3,4.68E2,1.069E3,1.004E3,2.395E3,1.016E3,1.795E3,2.94E2,2.764E3,2.29E2,1.63E2,1.69E2,3.79E2,6.42E2,1.14E2,2E0,1.14E2,4.353E3,4.565E3,3.087E3,4.93E2,2.09E2,2.59E2,9.41E2,1.28E2,4.8E1,9.56E2,8.03E2,1.592E3,6E0,1.01E3,3.77E2,1.418E3,1.41E2,1.53E2,2.016E3,7.48E2,6.1E1,1.68E2,6E1,1.03E2,1.64E2,5E0,6E0,3.73E2,1.12E2,5.3E2,1.13E2,1E0,9E1,2.4E1,3.65E2,3.988E3,1.468E3,3.097E3,1.136E3,1.951E3,4.76E2,1.7E1,5E1,1.59E2,1.3E2,1.29E2,7E0,9.34E2,7.1E1,5.7E1,2.3E1,2.5E1,4.91E2,4.65E2,4.23E2,3.8E2,6.27E2,9.65E2,1E0,5E0,1.06E2,9.04E2,2.26E2,1.51E2,1.064E3,3.54E2,1.35E2,6E0,3.1E1,1.22E2,1.969E3,4.7E1,7.12E2,3.6E1,2.3E1,3.8E1,4.6E1,1.22E2,5.6E1,4E0,6E0,9.7E1,5.2E1,1.12E2,1E0,4E0,1E0,5E0,2.78E2,9.5E1],"tree_param":{"num_deleted":"0","num_feature":"6","num_nodes":"125","size_leaf_vector":"1"}},{"base_weights":[7.977596E-3,-6.889806E-2,7.996524E-1,-1.4008112E-1,2.1004362E-1,1.2026433E0,5.8138156E-1,-1.5959282E-1,5.8602914E-2,-2.1175941E-2,3.1675032E-1,1.0860215E0,3.189789E0,4.2682818E-1,9.721792E-1,-2.7589288E-1,-1.3044931E-1,3.4722194E-2,2.6465502E0,-3.6199155E-1,1.1911483E-2,3.1007886E-1,2.6514013E0,2.3464298E0,1.0185236E0,3.652806E0,1.0347459E0,4.894498E-1,-1.3725302E-1,7.3722935E-1,2.2582953E0,-7.897409E-2,-3.0411246E-1,-7.915377E-2,-1.9252191E-1,-5.893829E-1,4.8804466E-2,6.3739586E-1,7.116783E-1,8.88454E-1,-4.8401952E-1,1.9901511E-1,-7.969373E-2,6.1065465E-1,2.8045154E-1,1.247524E-2,2.9516384E-1,7.829736E-2,2.4133995E-1,4.180119E-1,1.1492941E0,2.795575E-1,4.3071038E-1,-1.5151869E-1,1.9797535E-1,3.899138E-1,8.310246E-1,-3.3038327E-1,8.8191426E-1,2.1303447E-1,1.4477032E0,6.1730175E0,1.311469E0,-4.5055967E-2,2.4858771E-3,-3.9771263E-2,-2.4238778E-2,1.0150111E-3,-1.3399864E-2,-2.0511568E-2,2.1444274E-2,-3.8177993E-2,-1.0265006E-1,7.137203E-2,2.4114156E-3,1.303361E-1,1.3825297E-4,-5.2754313E-2,1.6623954E-1,-7.187762E-2,-2.0289091E-2,8.932898E-3,9.132496E-2,-2.5526796E-2,6.9581503E-3,1.13312915E-1,2.261362E-2,1.7054556E-2,3.707181E-2,1.1380907E-1,4.034744E-3,7.1229205E-2,1.517225E-1,4.965522E-3,5.166964E-2,4.1182604E-1,6.811913E-2,-4.7822278E-2,6.721479E-3,1.5630552E-1,2.4881009E-2,1.1413053E-2,2.5971887E-1,2.7842507E-1,1.0549984E-1,7.945755E-1,6.411041E-2,1.514325E-1,-2.089373E-2],"categories":[],"categories_nodes":[],"categories_segments":[],"categories_sizes":[],"default_left":[0,0,0,0,0,0,0,0,0,0,0,0,0,0,0,0,0,0,0,0,0,0,0,0,0,0,0,0,0,0,0,0,0,0,0,0,0,0,0,0,0,0,0,0,0,0,0,0,0,0,0,0,0,0,0,0,0,0,0,0,0,0,0,0,0,0,0,0,0,0,0,0,0,0,0,0,0,0,0,0,0,0,0,0,0,0,0,0,0,0,0,0,0,0,0,0,0,0,0,0,0,0,0,0,0,0,0,0,0],"id":7,"left_children":[1,3,5,7,9,11,13,15,17,19,21,23,25,27,29,31,33,35,37,39,41,43,45,47,49,51,53,55,57,59,61,63,65,67,69,71,73,-1,75,77,79,81,83,85,87,-1,-1,-1,-1,89,91,-1,-1,-1,-1,93,95,97,99,101,103,105,107,-1,-1,-1,-1,-1,-1,-1,-1,-1,-1,-1,-1,-1,-1,-1,-1,-1,-1,-1,-1,-1,-1,-1,-1,-1,-1,-1,-1,-1,-1,-1,-1,-1,-1,-1,-1,-1,-1,-1,-1,-1,-1,-1,-1,-1,-1],"loss_changes":[1.538183E3,4.5745035E2,1.9606995E2,7.116165E1,1.1557352E2,1.7845508E2,8.734494E1,5.661093E1,1.0138708E2,1.6693844E1,4.909732E1,6.0820923E1,3.9126617E1,3.6909775E1,1.2252811E2,1.8580688E1,4.254274E1,1.433696E1,1.0364467E2,2.041923E1,2.3154413E1,2.8298859E1,6.459114E0,1.984436E0,5.5039795E1,7.5901184E0,2.4687048E1,3.1601028E1,2.095873E1,1.2966855E2,2.2541772E2,1.6254555E1,1.6819946E1,3.5853687E1,3.103621E1,2.8749943E0,2.6135038E1,0E0,4.6211658E0,1.4027772E1,7.7737885E0,3.4702103E1,2.3789217E1,5.720147E1,2.8826248E1,0E0,0E0,0E0,0E0,3.4763447E1,9.2175476E1,0E0,0E0,0E0,0E0,3.1422562E1,1.01119995E2,5.263626E0,6.9420595E0,4.733564E1,7.474313E1,1.1258548E2,1.6354408E1,0E0,0E0,0E0,0E0,0E0,0E0,0E0,0E0,0E0,0E0,0E0,0E0,0E0,0E0,0E0,0E0,0E0,0E0,0E0,0E0,0E0,0E0,0E0,0E0,0E0,0E0,0E0,0E0,0E0,0E0,0E0,0E0,0E0,0E0,0E0,0E0,0E0,0E0,0E0,0E0,0E0,0E0,0E0,0E0,0E0,0E0],"parents":[2147483647,0,0,1,1,2,2,3,3,4,4,5,5,6,6,7,7,8,8,9,9,10,10,11,11,12,12,13,13,14,14,15,15,16,16,17,17,18,18,19,19,20,20,21,21,22,22,23,23,24,24,25,25,26,26,27,27,28,28,29,29,30,30,31,31,32,32,33,33,34,34,35,35,36,36,38,38,39,39,40,40,41,41,42,42,43,43,44,44,49,49,50,50,55,55,56,56,57,57,58,58,59,59,60,60,61,61,62,62],"right_children":[2,4,6,8,10,12,14,16,18,20,22,24,26,28,30,32,34,36,38,40,42,44,46,48,50,52,54,56,58,60,62,64,66,68,70,72,74,-1,76,78,80,82,84,86,88,-1,-1,-1,-1,90,92,-1,-1,-1,-1,94,96,98,100,102,104,106,108,-1,-1,-1,-1,-1,-1,-1,-1,-1,-1,-1,-1,-1,-1,-1,-1,-1,-1,-1,-1,-1,-1,-1,-1,-1,-1,-1,-1,-1,-1,-1,-1,-1,-1,-1,-1,-1,-1,-1,-1,-1,-1,-1,-1,-1,-1],"split_conditions":[1.68E1,4.1E0,1.8745832E1,9.0416664E1,8.7125E1,5.15E1,9.475E1,6.8E1,2.68E1,5.7E1,9.9041664E1,1.1808333E1,1.74E1,2.4658333E1,2.1966667E1,6.9458336E1,9.2E1,1.0616667E1,2.7E1,1.49E1,2.0670834E1,4.9E0,9.6E1,8.8875E1,1.37E1,1.5941667E1,1.77E1,1.2E0,2.8E0,2.73E1,1.85E1,4.6E1,1E-1,1.83E1,5E-1,1E-1,1.1995833E1,6.3739586E-1,2.76E1,8.2E0,2.75E1,2.0075E1,2.31E1,1.8745832E1,1.92E1,1.247524E-2,2.9516384E-1,7.829736E-2,2.4133995E-1,1.2E1,2.27E1,2.795575E-1,4.3071038E-1,-1.5151869E-1,1.9797535E-1,1.97E1,1.73E1,2.5883333E1,2.26E1,2.37E1,9.575E1,2.2229166E1,2.3283333E1,-4.5055967E-2,2.4858771E-3,-3.9771263E-2,-2.4238778E-2,1.0150111E-3,-1.3399864E-2,-2.0511568E-2,2.1444274E-2,-3.8177993E-2,-1.0265006E-1,7.137203E-2,2.4114156E-3,1.303361E-1,1.3825297E-4,-5.2754313E-2,1.6623954E-1,-7.187762E-2,-2.0289091E-2,8.932898E-3,9.132496E-2,-2.5526796E-2,6.9581503E-3,1.13312915E-1,2.261362E-2,1.7054556E-2,3.707181E-2,1.1380907E-1,4.034744E-3,7.1229205E-2,1.517225E-1,4.965522E-3,5.166964E-2,4.1182604E-1,6.811913E-2,-4.7822278E-2,6.721479E-3,1.5630552E-1,2.4881009E-2,1.1413053E-2,2.5971887E-1,2.7842507E-1,1.0549984E-1,7.945755E-1,6.411041E-2,1.514325E-1,-2.089373E-2],"split_indices":[3,3,4,5,5,3,5,1,0,1,5,4,0,4,4,5,1,4,0,0,4,3,1,5,0,4,0,2,2,3,3,1,3,0,2,3,4,0,0,0,0,4,4,4,0,0,0,0,0,0,3,0,0,0,0,0,0,4,0,0,5,4,4,0,0,0,0,0,0,0,0,0,0,0,0,0,0,0,0,0,0,0,0,0,0,0,0,0,0,0,0,0,0,0,0,0,0,0,0,0,0,0,0,0,0,0,0,0,0],"split_type":[0,0,0,0,0,0,0,0,0,0,0,0,0,0,0,0,0,0,0,0,0,0,0,0,0,0,0,0,0,0,0,0,0,0,0,0,0,0,0,0,0,0,0,0,0,0,0,0,0,0,0,0,0,0,0,0,0,0,0,0,0,0,0,0,0,0,0,0,0,0,0,0,0,0,0,0,0,0,0,0,0,0,0,0,0,0,0,0,0,0,0,0,0,0,0,0,0,0,0,0,0,0,0,0,0,0,0,0,0],"sum_hessian":[2.5272E4,2.3036E4,2.236E3,1.8353E4,4.683E3,7.84E2,1.452E3,1.6712E4,1.641E3,1.479E3,3.204E3,7.42E2,4.2E1,1.042E3,4.1E2,3.347E3,1.3365E4,1.627E3,1.4E1,1.3E2,1.349E3,3.196E3,8E0,3.6E1,7.06E2,3.4E1,8E0,9.38E2,1.04E2,3.48E2,6.2E1,4.2E2,2.927E3,7.319E3,6.046E3,3.5E1,1.592E3,4E0,1E1,1.1E1,1.19E2,4.43E2,9.06E2,2.85E2,2.911E3,1E0,7E0,2E0,3.4E1,1.27E2,5.79E2,1.7E1,1.7E1,2E0,6E0,7.28E2,2.1E2,8.8E1,1.6E1,2.01E2,1.47E2,1.1E1,5.1E1,9.1E1,3.29E2,1.161E3,1.766E3,2.785E3,4.534E3,5.865E3,1.81E2,2.5E1,1E1,5.6E1,1.536E3,5E0,5E0,4E0,7E0,6.4E1,5.5E1,3.85E2,5.8E1,4.16E2,4.9E2,1.2E2,1.65E2,1.314E3,1.597E3,4.3E1,8.4E1,2.66E2,3.13E2,1.98E2,5.3E2,8E0,2.02E2,6.4E1,2.4E1,7E0,9E0,1.94E2,7E0,3.2E1,1.15E2,8E0,3E0,4.5E1,6E0],"tree_param":{"num_deleted":"0","num_feature":"6","num_nodes":"109","size_leaf_vector":"1"}},{"base_weights":[6.0035167E-3,-8.020175E-2,5.034456E-1,-9.794075E-2,5.24629E-1,3.5039067E-1,9.755696E-1,-1.5183878E-1,-8.1653567E-4,7.657981E-1,1.2667346E-1,2.8586864E-1,6.4350104E-1,1.3702812E0,5.5811155E-1,-1.6664362E-1,6.446153E-2,-1.8264827E-1,6.294236E-2,6.3817436E-1,3.8202558E0,-7.318755E-2,6.84863E-1,2.0501256E-1,5.7872164E-1,4.1413525E-1,3.6137526E0,1.2128494E0,2.9269683E0,4.7010183E-1,1.6004015E0,-3.2671183E-1,-1.512875E-1,4.367819E-2,4.480393E0,2.1418367E-1,-1.898209E-1,5.5396467E-2,1.0891199E0,1.2737008E0,4.6383673E-1,6.492518E0,-1.6126075E-1,5.366608E-1,-3.0190504E-1,3.5995695E-1,2.7923706E0,-4.9915856E-1,2.221197E-1,3.5366368E-1,8.760819E-1,9.485858E-1,2.8646502E-1,5.8494368E0,1.5327334E0,1.7513697E0,8.731864E-1,3.2973895E0,1.4118823E0,-6.857152E-1,5.158454E-1,1.9090648E0,3.5861316E-1,-2.674502E-2,-6.0341652E-2,-1.25800315E-2,-2.6710868E-2,-2.5563061E-2,1.1583166E-2,5.4890174E-1,7.272609E-2,1.5876109E-3,-2.4746507E-2,3.1164584E-3,2.6517902E-2,2.809895E-1,4.218651E-2,-4.270667E-2,1.421363E-1,2.9262219E-2,9.2104755E-2,7.3951674E-1,-3.6433976E-2,4.896532E-2,-5.19557E-2,3.4845132E-2,3.180916E-1,-5.498606E-2,1.3588521E-2,2.4159805E-1,1.0085289E-2,1.2404131E-1,4.0342245E-1,-1.2782456E-1,-1.5634278E-2,1.2304758E-1,2.086322E-2,4.0151116E-2,-6.7465685E-2,1.888077E-2,1.0695342E-1,2.0905557E-1,6.340579E-2,2.6381606E-2,2.3495126E-1,7.673382E-1,1.22663856E-1,1.7032896E-1,9.726595E-2,2.6397634E-2,2.1413496E-1,6.690638E-2,1.7045753E-1,1.5920034E-1,3.5450655E-1,-1.12472534E-1,2.186625E-1,-7.706266E-2,2.9397726E-2,1.9101018E-1,4.517761E-2,1.4422338E-3,2.0600593E-1,4.0514866E-4,9.481988E-2],"categories":[],"categories_nodes":[],"categories_segments":[],"categories_sizes":[],"default_left":[0,0,0,0,0,0,0,0,0,0,0,0,0,0,0,0,0,0,0,0,0,0,0,0,0,0,0,0,0,0,0,0,0,0,0,0,0,0,0,0,0,0,0,0,0,0,0,0,0,0,0,0,0,0,0,0,0,0,0,0,0,0,0,0,0,0,0,0,0,0,0,0,0,0,0,0,0,0,0,0,0,0,0,0,0,0,0,0,0,0,0,0,0,0,0,0,0,0,0,0,0,0,0,0,0,0,0,0,0,0,0,0,0,0,0,0,0,0,0,0,0,0,0,0,0],"id":8,"left_children":[1,3,5,7,9,11,13,15,17,19,21,23,25,27,29,31,33,35,37,39,41,43,45,47,49,51,53,55,57,59,61,63,65,67,69,-1,71,73,75,77,79,81,83,85,87,89,91,93,95,97,99,101,103,105,107,109,111,113,115,117,119,121,123,-1,-1,-1,-1,-1,-1,-1,-1,-1,-1,-1,-1,-1,-1,-1,-1,-1,-1,-1,-1,-1,-1,-1,-1,-1,-1,-1,-1,-1,-1,-1,-1,-1,-1,-1,-1,-1,-1,-1,-1,-1,-1,-1,-1,-1,-1,-1,-1,-1,-1,-1,-1,-1,-1,-1,-1,-1,-1,-1,-1,-1,-1],"loss_changes":[1.0750955E3,2.2931067E2,2.672403E2,1.0867439E2,5.8351532E1,5.2732025E1,1.4852191E2,4.2764496E1,8.5918526E1,1.4530424E2,2.5820557E1,5.4224533E1,3.4186554E2,1.1040869E2,3.979303E1,3.0666077E1,7.8366104E1,3.248475E1,4.2427856E1,3.9849823E1,1.6064186E2,2.4013607E1,4.0764114E1,2.1794312E1,3.288411E1,3.1729744E1,1.5852435E2,7.6026794E1,1.891568E1,2.197805E1,1.2347389E1,1.7761612E1,3.3630493E1,1.8451143E1,1.115004E1,0E0,2.2757965E1,2.7686243E1,4.4742416E1,2.019587E1,2.2275452E1,5.8398376E1,1.8869426E0,2.2282276E1,1.3643784E1,2.8523441E1,1.0414333E1,1.1284738E1,2.3652443E1,1.4244392E1,2.8117416E1,3.1000793E1,1.7135994E1,1.33927E2,2.537613E-1,9.39834E1,4.3322327E1,8.294891E0,2.2111534E1,1.5575371E0,3.433271E1,7.6944656E0,1.668514E0,0E0,0E0,0E0,0E0,0E0,0E0,0E0,0E0,0E0,0E0,0E0,0E0,0E0,0E0,0E0,0E0,0E0,0E0,0E0,0E0,0E0,0E0,0E0,0E0,0E0,0E0,0E0,0E0,0E0,0E0,0E0,0E0,0E0,0E0,0E0,0E0,0E0,0E0,0E0,0E0,0E0,0E0,0E0,0E0,0E0,0E0,0E0,0E0,0E0,0E0,0E0,0E0,0E0,0E0,0E0,0E0,0E0,0E0,0E0,0E0,0E0,0E0],"parents":[2147483647,0,0,1,1,2,2,3,3,4,4,5,5,6,6,7,7,8,8,9,9,10,10,11,11,12,12,13,13,14,14,15,15,16,16,17,17,18,18,19,19,20,20,21,21,22,22,23,23,24,24,25,25,26,26,27,27,28,28,29,29,30,30,31,31,32,32,33,33,34,34,36,36,37,37,38,38,39,39,40,40,41,41,42,42,43,43,44,44,45,45,46,46,47,47,48,48,49,49,50,50,51,51,52,52,53,53,54,54,55,55,56,56,57,57,58,58,59,59,60,60,61,61,62,62],"right_children":[2,4,6,8,10,12,14,16,18,20,22,24,26,28,30,32,34,36,38,40,42,44,46,48,50,52,54,56,58,60,62,64,66,68,70,-1,72,74,76,78,80,82,84,86,88,90,92,94,96,98,100,102,104,106,108,110,112,114,116,118,120,122,124,-1,-1,-1,-1,-1,-1,-1,-1,-1,-1,-1,-1,-1,-1,-1,-1,-1,-1,-1,-1,-1,-1,-1,-1,-1,-1,-1,-1,-1,-1,-1,-1,-1,-1,-1,-1,-1,-1,-1,-1,-1,-1,-1,-1,-1,-1,-1,-1,-1,-1,-1,-1,-1,-1,-1,-1,-1,-1,-1,-1,-1,-1],"split_conditions":[1.08E1,9.4125E1,2.54E1,9E-1,7.9E0,9.5958336E1,1.9904167E1,9.0541664E1,8.2708336E1,2.1341667E1,9.6791664E1,8E-1,2.1841667E1,5.15E1,9.7666664E1,5.7E1,2.68E1,7.204167E0,3.7E0,1.4033334E1,2.35E1,9.3E1,1.04E1,5.6E1,1E2,1.495E1,2.2195833E1,9.575E1,1.72E1,8.3583336E1,2E0,8.0166664E1,9.7E1,1.4033334E1,2.7E1,2.1418367E-1,1.9079166E1,1E2,2.0295834E1,1.0908334E1,9.65E1,1E-1,8.4E1,8E-1,1E2,1.41E1,1.6408333E1,2.13E1,1.06E1,7.1E0,1.61E1,9.65E1,2.38E1,1.85E1,3E-1,2.73E1,1.7E0,1.33E1,1.75E1,4.57E1,8.5166664E1,1.75E1,2.17E1,-2.674502E-2,-6.0341652E-2,-1.25800315E-2,-2.6710868E-2,-2.5563061E-2,1.1583166E-2,5.4890174E-1,7.272609E-2,1.5876109E-3,-2.4746507E-2,3.1164584E-3,2.6517902E-2,2.809895E-1,4.218651E-2,-4.270667E-2,1.421363E-1,2.9262219E-2,9.2104755E-2,7.3951674E-1,-3.6433976E-2,4.896532E-2,-5.19557E-2,3.4845132E-2,3.180916E-1,-5.498606E-2,1.3588521E-2,2.4159805E-1,1.0085289E-2,1.2404131E-1,4.0342245E-1,-1.2782456E-1,-1.5634278E-2,1.2304758E-1,2.086322E-2,4.0151116E-2,-6.7465685E-2,1.888077E-2,1.0695342E-1,2.0905557E-1,6.340579E-2,2.6381606E-2,2.3495126E-1,7.673382E-1,1.22663856E-1,1.7032896E-1,9.726595E-2,2.6397634E-2,2.1413496E-1,6.690638E-2,1.7045753E-1,1.5920034E-1,3.5450655E-1,-1.12472534E-1,2.186625E-1,-7.706266E-2,2.9397726E-2,1.9101018E-1,4.517761E-2,1.4422338E-3,2.0600593E-1,4.0514866E-4,9.481988E-2],"split_indices":[3,5,3,3,3,5,4,5,5,4,5,2,4,3,5,1,0,4,2,4,0,1,3,1,1,4,4,5,0,5,2,5,1,4,0,0,4,1,4,4,5,2,1,2,1,4,4,0,0,2,0,5,0,3,2,3,2,0,0,3,5,0,0,0,0,0,0,0,0,0,0,0,0,0,0,0,0,0,0,0,0,0,0,0,0,0,0,0,0,0,0,0,0,0,0,0,0,0,0,0,0,0,0,0,0,0,0,0,0,0,0,0,0,0,0,0,0,0,0,0,0,0,0,0,0],"split_type":[0,0,0,0,0,0,0,0,0,0,0,0,0,0,0,0,0,0,0,0,0,0,0,0,0,0,0,0,0,0,0,0,0,0,0,0,0,0,0,0,0,0,0,0,0,0,0,0,0,0,0,0,0,0,0,0,0,0,0,0,0,0,0,0,0,0,0,0,0,0,0,0,0,0,0,0,0,0,0,0,0,0,0,0,0,0,0,0,0,0,0,0,0,0,0,0,0,0,0,0,0,0,0,0,0,0,0,0,0,0,0,0,0,0,0,0,0,0,0,0,0,0,0,0,0],"sum_hessian":[2.5069E4,2.1367E4,3.702E3,2.0759E4,6.08E2,2.797E3,9.05E2,1.335E4,7.409E3,3.78E2,2.3E2,2.294E3,5.03E2,4.64E2,4.41E2,1.2495E4,8.55E2,1.923E3,5.486E3,3.64E2,1.4E1,1.7E2,6E1,1.799E3,4.95E2,4.68E2,3.5E1,4.23E2,4.1E1,4.08E2,3.3E1,1.092E3,1.1403E4,8.52E2,3E0,5E0,1.918E3,5.447E3,3.9E1,7.7E1,2.87E2,8E0,6E0,4.6E1,1.24E2,5.3E1,7E0,4.2E1,1.757E3,2.83E2,2.12E2,8.9E1,3.79E2,1.6E1,1.9E1,1.62E2,2.61E2,3.2E1,9E0,1.5E1,3.93E2,2.6E1,7E0,9.01E2,1.91E2,9.348E3,2.055E3,1.65E2,6.87E2,2E0,1E0,4.2E2,1.498E3,4.884E3,5.63E2,1E1,2.9E1,6E0,7.1E1,2.1E2,7.7E1,7E0,1E0,2E0,4E0,4.4E1,2E0,7.9E1,4.5E1,5E0,4.8E1,4E0,3E0,1.2E1,3E1,2.2E1,1.735E3,2.71E2,1.2E1,4.7E1,1.65E2,1.8E1,7.1E1,3.76E2,3E0,1.1E1,5E0,1.3E1,6E0,3.4E1,1.28E2,2.11E2,5E1,5E0,2.7E1,2E0,7E0,1.4E1,1E0,1.6E1,3.77E2,2E0,2.4E1,5E0,2E0],"tree_param":{"num_deleted":"0","num_feature":"6","num_nodes":"125","size_leaf_vector":"1"}},{"base_weights":[7.679888E-3,-5.365539E-2,6.3299114E-1,-1.1262573E-1,1.7326844E-1,1.0550857E0,4.60592E-1,-1.9534928E-1,-6.449164E-2,6.184269E-2,2.93883E-1,9.511238E-1,2.7573955E0,1.3873088E-1,5.7801336E-1,-2.1512842E-1,5.248333E-2,-1.6715094E-1,-9.084591E-3,8.159499E-2,-4.2058796E-1,2.110433E-1,4.7154692E-1,7.5286424E-1,1.3537307E0,2.9223793E0,-8.654793E-2,-5.976091E-1,2.0565857E-1,5.1712096E-1,1.3506353E0,-4.7505897E-1,-1.9993208E-1,-3.4445882E-1,1.57393E-1,1.4129568E-2,-2.217968E-1,-2.5010785E-1,1.8007688E-2,-1.5374842E-1,1.286939E-1,-6.048304E-1,4.2163327E-1,6.489447E-1,1.4947927E-1,3.5940832E-1,1.0424987E0,1.9028683E0,6.1827165E-1,1.9005815E0,3.3996412E-1,1.5979084E0,3.2556334E-1,1.1205115E-1,-1.2503335E-1,-2.7060717E-1,-7.9340094E-1,1.16941355E-1,8.000324E-1,1.203817E0,4.402159E-1,2.5076344E0,7.382913E-1,-1.25499135E-2,-5.289585E-2,8.2871236E-4,-2.1636894E-2,-4.58162E-2,2.2424322E-2,2.420494E-3,5.086374E-2,-1.4304285E-2,5.752812E-2,-2.5812013E-2,2.4920143E-3,-2.563411E-2,2.2279952E-1,1.1782455E-2,-7.7035017E-3,-7.5388956E-3,-6.0774416E-2,6.5278583E-3,3.9947573E-2,5.5874456E-2,-7.790374E-2,1.1948992E-1,-6.943116E-2,-6.652926E-2,8.600687E-2,9.823596E-2,1.24832885E-2,8.513379E-2,3.1258564E-2,2.693721E-1,3.96768E-2,9.891325E-2,2.0834613E-1,4.781866E-2,1.4027141E-1,7.2551295E-2,2.1441098E-1,1.5694475E-2,2.7610347E-1,2.0116952E-1,-8.561929E-2,-4.4675678E-2,1.0977437E-1,-8.648907E-2,-4.586133E-2,3.244245E-2,-2.35721E-2,2.7453887E-1,6.2125202E-2,5.59732E-2,2.142585E-1,2.0111857E-2,7.225312E-2,-2.4942374E-2,2.8353497E-1,2.5598142E-1,6.255121E-2],"categories":[],"categories_nodes":[],"categories_segments":[],"categories_sizes":[],"default_left":[0,0,0,0,0,0,0,0,0,0,0,0,0,0,0,0,0,0,0,0,0,0,0,0,0,0,0,0,0,0,0,0,0,0,0,0,0,0,0,0,0,0,0,0,0,0,0,0,0,0,0,0,0,0,0,0,0,0,0,0,0,0,0,0,0,0,0,0,0,0,0,0,0,0,0,0,0,0,0,0,0,0,0,0,0,0,0,0,0,0,0,0,0,0,0,0,0,0,0,0,0,0,0,0,0,0,0,0,0,0,0,0,0,0,0,0,0,0,0,0,0],"id":9,"left_children":[1,3,5,7,9,11,13,15,17,19,21,23,25,27,29,31,33,35,37,39,41,43,45,47,49,51,53,55,57,59,61,63,65,67,69,71,73,75,77,79,81,83,85,87,89,91,93,95,97,99,101,103,-1,-1,-1,105,107,109,111,113,115,117,119,-1,-1,-1,-1,-1,-1,-1,-1,-1,-1,-1,-1,-1,-1,-1,-1,-1,-1,-1,-1,-1,-1,-1,-1,-1,-1,-1,-1,-1,-1,-1,-1,-1,-1,-1,-1,-1,-1,-1,-1,-1,-1,-1,-1,-1,-1,-1,-1,-1,-1,-1,-1,-1,-1,-1,-1,-1,-1],"loss_changes":[9.665074E2,3.071179E2,1.6331647E2,7.252028E1,6.360475E1,1.1276538E2,6.038922E1,3.2854156E1,6.550774E1,2.3494991E1,3.3353622E1,4.815039E1,1.7613495E1,2.1264683E1,5.444037E1,2.4414734E1,2.0709177E1,3.9994576E1,4.885446E1,2.6245522E1,1.5306786E1,4.1743324E1,4.58519E1,6.3058044E1,1.1133841E2,1.0246277E1,5.615288E0,2.0901747E0,2.0682528E1,5.6927795E1,5.8369553E1,6.3772736E0,2.0071152E1,6.827717E0,1.8372839E1,8.26352E1,2.7805252E1,1.2248768E1,6.3817722E1,1.4006252E1,3.3836548E1,1.6651518E1,1.6362232E1,5.356839E1,2.7835804E1,1.3669121E1,1.2474812E2,5.03479E0,4.031772E1,3.593167E1,3.1470076E1,1.0861671E1,0E0,0E0,0E0,4.105942E0,1.2989521E-1,2.5247467E1,1.6031792E1,6.47072E1,6.600549E1,2.6909576E1,1.01083145E1,0E0,0E0,0E0,0E0,0E0,0E0,0E0,0E0,0E0,0E0,0E0,0E0,0E0,0E0,0E0,0E0,0E0,0E0,0E0,0E0,0E0,0E0,0E0,0E0,0E0,0E0,0E0,0E0,0E0,0E0,0E0,0E0,0E0,0E0,0E0,0E0,0E0,0E0,0E0,0E0,0E0,0E0,0E0,0E0,0E0,0E0,0E0,0E0,0E0,0E0,0E0,0E0,0E0,0E0,0E0,0E0,0E0,0E0],"parents":[2147483647,0,0,1,1,2,2,3,3,4,4,5,5,6,6,7,7,8,8,9,9,10,10,11,11,12,12,13,13,14,14,15,15,16,16,17,17,18,18,19,19,20,20,21,21,22,22,23,23,24,24,25,25,26,26,27,27,28,28,29,29,30,30,31,31,32,32,33,33,34,34,35,35,36,36,37,37,38,38,39,39,40,40,41,41,42,42,43,43,44,44,45,45,46,46,47,47,48,48,49,49,50,50,51,51,55,55,56,56,57,57,58,58,59,59,60,60,61,61,62,62],"right_children":[2,4,6,8,10,12,14,16,18,20,22,24,26,28,30,32,34,36,38,40,42,44,46,48,50,52,54,56,58,60,62,64,66,68,70,72,74,76,78,80,82,84,86,88,90,92,94,96,98,100,102,104,-1,-1,-1,106,108,110,112,114,116,118,120,-1,-1,-1,-1,-1,-1,-1,-1,-1,-1,-1,-1,-1,-1,-1,-1,-1,-1,-1,-1,-1,-1,-1,-1,-1,-1,-1,-1,-1,-1,-1,-1,-1,-1,-1,-1,-1,-1,-1,-1,-1,-1,-1,-1,-1,-1,-1,-1,-1,-1,-1,-1,-1,-1,-1,-1,-1,-1],"split_conditions":[1.68E1,4.1E0,1.8033333E1,1E-1,8.9833336E1,5.15E1,8.9458336E1,9.0458336E1,8.1208336E1,1.55E1,2.08E1,1.6604166E1,1.71E1,8.1875E1,3.3E0,5.2E1,1.41E1,1.9225E1,6.8E1,8.2291664E1,1.2E0,1.3695833E1,9.4541664E1,1.1808333E1,9.7666664E1,1.33E1,9.7E1,9.2E1,2.4E0,1.81E1,1.9770834E1,1.48E1,6.875E1,1E2,9.1875E1,1.8408333E1,2.5241667E1,9.375E1,9.2E1,1.19E1,6E-1,8.1958336E1,2.4E0,9.4E0,4.4E0,1.84625E1,9E0,7.7E0,3.77E1,8.3E1,2.6E0,1.31E1,3.2556334E-1,1.1205115E-1,-1.2503335E-1,8.9E1,2.6291666E1,8.7625E1,1.78E1,2.1966667E1,2.54E1,2.27E1,3.4E0,-1.25499135E-2,-5.289585E-2,8.2871236E-4,-2.1636894E-2,-4.58162E-2,2.2424322E-2,2.420494E-3,5.086374E-2,-1.4304285E-2,5.752812E-2,-2.5812013E-2,2.4920143E-3,-2.563411E-2,2.2279952E-1,1.1782455E-2,-7.7035017E-3,-7.5388956E-3,-6.0774416E-2,6.5278583E-3,3.9947573E-2,5.5874456E-2,-7.790374E-2,1.1948992E-1,-6.943116E-2,-6.652926E-2,8.600687E-2,9.823596E-2,1.24832885E-2,8.513379E-2,3.1258564E-2,2.693721E-1,3.96768E-2,9.891325E-2,2.0834613E-1,4.781866E-2,1.4027141E-1,7.2551295E-2,2.1441098E-1,1.5694475E-2,2.7610347E-1,2.0116952E-1,-8.561929E-2,-4.4675678E-2,1.0977437E-1,-8.648907E-2,-4.586133E-2,3.244245E-2,-2.35721E-2,2.7453887E-1,6.2125202E-2,5.59732E-2,2.142585E-1,2.0111857E-2,7.225312E-2,-2.4942374E-2,2.8353497E-1,2.5598142E-1,6.255121E-2],"split_indices":[3,3,4,3,5,3,5,5,5,3,0,4,0,5,2,1,4,4,1,5,2,4,5,4,5,0,1,1,2,3,4,0,5,1,5,4,4,5,1,3,2,5,2,0,3,4,3,0,3,1,2,0,0,0,0,1,4,5,0,4,3,3,2,0,0,0,0,0,0,0,0,0,0,0,0,0,0,0,0,0,0,0,0,0,0,0,0,0,0,0,0,0,0,0,0,0,0,0,0,0,0,0,0,0,0,0,0,0,0,0,0,0,0,0,0,0,0,0,0,0,0],"split_type":[0,0,0,0,0,0,0,0,0,0,0,0,0,0,0,0,0,0,0,0,0,0,0,0,0,0,0,0,0,0,0,0,0,0,0,0,0,0,0,0,0,0,0,0,0,0,0,0,0,0,0,0,0,0,0,0,0,0,0,0,0,0,0,0,0,0,0,0,0,0,0,0,0,0,0,0,0,0,0,0,0,0,0,0,0,0,0,0,0,0,0,0,0,0,0,0,0,0,0,0,0,0,0,0,0,0,0,0,0,0,0,0,0,0,0,0,0,0,0,0,0],"sum_hessian":[2.5198E4,2.2948E4,2.25E3,1.8215E4,4.733E3,6.51E2,1.599E3,6.699E3,1.1516E4,2.461E3,2.272E3,6.15E2,3.6E1,4.28E2,1.171E3,6.204E3,4.95E2,4.036E3,7.48E3,2.365E3,9.6E1,1.551E3,7.21E2,4.14E2,2.01E2,3.4E1,2E0,3.5E1,3.93E2,1.087E3,8.4E1,3.41E2,5.863E3,1.03E2,3.92E2,9.35E2,3.101E3,7.55E2,6.725E3,3.94E2,1.971E3,7.9E1,1.7E1,1.9E2,1.361E3,6.04E2,1.17E2,4.2E1,3.72E2,1.3E2,7.1E1,8E0,2.6E1,1E0,1E0,1.4E1,2.1E1,3.43E2,5E1,1.08E2,9.79E2,2.8E1,5.6E1,4.6E1,2.95E2,4.29E2,5.434E3,8.6E1,1.7E1,2.85E2,1.07E2,7.31E2,2.04E2,2.703E3,3.98E2,7.54E2,1E0,3.28E3,3.445E3,3.37E2,5.7E1,1.598E3,3.73E2,1E1,6.9E1,1E1,7E0,2.6E1,1.64E2,3.8E1,1.323E3,5.1E1,5.53E2,3.2E1,8.5E1,8E0,3.4E1,3.17E2,5.5E1,2.3E1,1.07E2,6.7E1,4E0,7E0,1E0,1.3E1,1E0,1.6E1,5E0,2.16E2,1.27E2,3E0,4.7E1,6.5E1,4.3E1,5.31E2,4.48E2,3E0,2.5E1,2E0,5.4E1],"tree_param":{"num_deleted":"0","num_feature":"6","num_nodes":"121","size_leaf_vector":"1"}},{"base_weights":[1.0512578E-2,-6.521685E-2,4.4534782E-1,-7.974646E-2,4.8320353E-1,3.3015847E-1,8.6763155E-1,-1.2515303E-1,1.3052432E-3,1.1333625E0,3.521213E-1,2.4490614E-1,5.8166176E-1,1.293964E0,3.9513916E-1,-1.0757339E-1,-2.1343973E-1,-8.1983685E-2,1.1386027E-1,9.0221083E-1,2.7534604E-1,2.70373E-1,1.3370543E0,-1.1282928E-1,2.9542935E-1,1.1813781E0,4.8377723E-1,1.1465546E0,2.780895E0,2.467466E-1,1.4381092E0,-1.8955076E-1,-8.009358E-2,-3.0069265E-1,1.8992701E-1,8.153311E-2,-1.2600552E-1,9.713501E-1,8.451448E-2,-2.5135884E-1,1.2783843E0,4.4352058E-1,2.89709E-2,4.2422504E0,-8.0175525E-1,1.0360267E0,-1.7005824E-1,1.4335381E0,2.8143784E-1,1.6241619E-1,1.2654759E0,-1.5871264E-1,5.884128E-1,9.7720337E-1,2.1793728E0,4.754921E-1,8.652269E-1,-4.8685378E-1,3.3179432E-1,1.7082852E0,3.985976E-1,-1.3922736E-2,-5.172949E-2,-1.259619E-2,7.813609E-3,-7.8233354E-2,-2.7192194E-2,2.2357357E-1,1.086716E-2,1.0783821E-1,1.1236778E-3,-1.8527763E-2,5.8814283E-3,1.1806792E-1,-4.7362313E-2,-2.3156611E-2,1.4975746E-2,2.881996E-1,-7.3286965E-2,1.7160882E-1,-8.726987E-3,1.9949257E-2,6.3659005E-2,-2.8688425E-2,3.3077832E-2,5.338564E-1,-1.0725147E-2,-1.1654288E-3,-1.1959733E-1,-4.8338104E-2,1.7650281E-1,-2.6669404E-2,1.4798412E-2,-5.5749048E-2,1.7600669E-1,1.984919E-2,4.2176146E-2,-3.9168876E-2,9.529696E-2,2.0503965E-1,1.0926733E-1,2.882888E-1,-3.7154667E-2,1.1928109E-1,4.63857E-2,1.10304706E-1,2.504181E-2,-1.2579764E-1,2.338837E-1,-9.702272E-3,1.0407429E-1,-9.176734E-2,-2.5115838E-2,2.054747E-2,9.142312E-2,6.557811E-2,2.2510675E-1,5.770239E-2,-6.928327E-2],"categories":[],"categories_nodes":[],"categories_segments":[],"categories_sizes":[],"default_left":[0,0,0,0,0,0,0,0,0,0,0,0,0,0,0,0,0,0,0,0,0,0,0,0,0,0,0,0,0,0,0,0,0,0,0,0,0,0,0,0,0,0,0,0,0,0,0,0,0,0,0,0,0,0,0,0,0,0,0,0,0,0,0,0,0,0,0,0,0,0,0,0,0,0,0,0,0,0,0,0,0,0,0,0,0,0,0,0,0,0,0,0,0,0,0,0,0,0,0,0,0,0,0,0,0,0,0,0,0,0,0,0,0,0,0,0,0,0,0],"id":10,"left_children":[1,3,5,7,9,11,13,15,17,19,21,23,25,27,29,31,33,35,37,39,-1,41,43,45,47,49,51,53,55,57,59,61,63,65,67,69,71,73,75,77,79,81,83,85,87,89,91,93,95,97,99,101,103,105,107,-1,109,111,113,115,117,-1,-1,-1,-1,-1,-1,-1,-1,-1,-1,-1,-1,-1,-1,-1,-1,-1,-1,-1,-1,-1,-1,-1,-1,-1,-1,-1,-1,-1,-1,-1,-1,-1,-1,-1,-1,-1,-1,-1,-1,-1,-1,-1,-1,-1,-1,-1,-1,-1,-1,-1,-1,-1,-1,-1,-1,-1,-1],"loss_changes":[8.2521747E2,1.7010684E2,1.8051807E2,7.6524216E1,4.6559525E1,6.250882E1,1.5983405E2,2.0661194E1,7.0009384E1,3.196872E1,3.6676132E1,3.9506805E1,4.2809967E1,8.843201E1,5.83026E1,2.5026077E1,7.7908295E1,3.0905413E1,7.98379E1,3.5904594E1,0E0,1.7793182E1,2.2087941E2,1.7993843E1,3.0074814E1,8.620773E0,4.291719E1,6.468558E1,1.3580432E2,2.0937748E1,1.2519096E1,4.5944E1,6.044495E1,2.4993408E1,6.525285E1,6.3826057E1,3.705955E1,3.2319054E1,6.3385582E1,3.3795753E1,3.7210396E1,1.1557365E1,1.7158504E1,7.2098816E1,6.5269756E0,1.5252631E1,7.9996443E0,1.593417E1,2.1937775E1,4.3157134E0,1.064502E1,5.9333164E1,4.070085E1,2.9906006E1,3.1993347E1,0E0,3.478777E0,3.3234959E0,2.1810535E1,1.9661171E1,2.5419197E0,0E0,0E0,0E0,0E0,0E0,0E0,0E0,0E0,0E0,0E0,0E0,0E0,0E0,0E0,0E0,0E0,0E0,0E0,0E0,0E0,0E0,0E0,0E0,0E0,0E0,0E0,0E0,0E0,0E0,0E0,0E0,0E0,0E0,0E0,0E0,0E0,0E0,0E0,0E0,0E0,0E0,0E0,0E0,0E0,0E0,0E0,0E0,0E0,0E0,0E0,0E0,0E0,0E0,0E0,0E0,0E0,0E0,0E0],"parents":[2147483647,0,0,1,1,2,2,3,3,4,4,5,5,6,6,7,7,8,8,9,9,10,10,11,11,12,12,13,13,14,14,15,15,16,16,17,17,18,18,19,19,21,21,22,22,23,23,24,24,25,25,26,26,27,27,28,28,29,29,30,30,31,31,32,32,33,33,34,34,35,35,36,36,37,37,38,38,39,39,40,40,41,41,42,42,43,43,44,44,45,45,46,46,47,47,48,48,49,49,50,50,51,51,52,52,53,53,54,54,56,56,57,57,58,58,59,59,60,60],"right_children":[2,4,6,8,10,12,14,16,18,20,22,24,26,28,30,32,34,36,38,40,-1,42,44,46,48,50,52,54,56,58,60,62,64,66,68,70,72,74,76,78,80,82,84,86,88,90,92,94,96,98,100,102,104,106,108,-1,110,112,114,116,118,-1,-1,-1,-1,-1,-1,-1,-1,-1,-1,-1,-1,-1,-1,-1,-1,-1,-1,-1,-1,-1,-1,-1,-1,-1,-1,-1,-1,-1,-1,-1,-1,-1,-1,-1,-1,-1,-1,-1,-1,-1,-1,-1,-1,-1,-1,-1,-1,-1,-1,-1,-1,-1,-1,-1,-1,-1,-1],"split_conditions":[1.08E1,9.4125E1,2.73E1,9E-1,1.41E1,1E2,1.9995832E1,5E-1,8.7125E1,9.7083336E1,2.1883333E1,8.4958336E1,1.5245833E1,1.955E1,9.6791664E1,7.7083336E1,8.7791664E1,1.74E1,1.2620833E1,9.2E1,2.7534604E-1,7.6E0,9.2E0,1.11E1,1.2316667E1,9.0708336E1,1.6E1,5.15E1,9.7375E1,1.94E1,2.1166666E1,2.3854166E1,2.1254168E1,1.4408334E1,1.2620833E1,1E0,2.3966667E1,9.3166664E1,1.6304167E1,7E1,7.4E0,4.2E0,1.72E1,2.23125E1,9.9E0,1.32E1,2.43E1,8.9833336E1,2.17E1,9E-1,1.4E1,8.4791664E1,1.8508333E1,1.9033333E1,9.575E1,4.754921E-1,1.72E1,2.0579166E1,4.57E1,2.0295834E1,2.14E1,-1.3922736E-2,-5.172949E-2,-1.259619E-2,7.813609E-3,-7.8233354E-2,-2.7192194E-2,2.2357357E-1,1.086716E-2,1.0783821E-1,1.1236778E-3,-1.8527763E-2,5.8814283E-3,1.1806792E-1,-4.7362313E-2,-2.3156611E-2,1.4975746E-2,2.881996E-1,-7.3286965E-2,1.7160882E-1,-8.726987E-3,1.9949257E-2,6.3659005E-2,-2.8688425E-2,3.3077832E-2,5.338564E-1,-1.0725147E-2,-1.1654288E-3,-1.1959733E-1,-4.8338104E-2,1.7650281E-1,-2.6669404E-2,1.4798412E-2,-5.5749048E-2,1.7600669E-1,1.984919E-2,4.2176146E-2,-3.9168876E-2,9.529696E-2,2.0503965E-1,1.0926733E-1,2.882888E-1,-3.7154667E-2,1.1928109E-1,4.63857E-2,1.10304706E-1,2.504181E-2,-1.2579764E-1,2.338837E-1,-9.702272E-3,1.0407429E-1,-9.176734E-2,-2.5115838E-2,2.054747E-2,9.142312E-2,6.557811E-2,2.2510675E-1,5.770239E-2,-6.928327E-2],"split_indices":[3,5,3,3,4,1,4,3,5,5,4,5,4,4,5,5,5,0,4,1,0,3,3,3,4,5,0,3,5,0,4,4,4,4,4,3,4,5,4,1,3,3,0,4,3,0,0,5,0,2,3,5,4,4,5,0,0,4,3,4,0,0,0,0,0,0,0,0,0,0,0,0,0,0,0,0,0,0,0,0,0,0,0,0,0,0,0,0,0,0,0,0,0,0,0,0,0,0,0,0,0,0,0,0,0,0,0,0,0,0,0,0,0,0,0,0,0,0,0],"split_type":[0,0,0,0,0,0,0,0,0,0,0,0,0,0,0,0,0,0,0,0,0,0,0,0,0,0,0,0,0,0,0,0,0,0,0,0,0,0,0,0,0,0,0,0,0,0,0,0,0,0,0,0,0,0,0,0,0,0,0,0,0,0,0,0,0,0,0,0,0,0,0,0,0,0,0,0,0,0,0,0,0,0,0,0,0,0,0,0,0,0,0,0,0,0,0,0,0,0,0,0,0,0,0,0,0,0,0,0,0,0,0,0,0,0,0,0,0,0,0],"sum_hessian":[2.5058E4,2.1342E4,3.716E3,2.0792E4,5.5E2,2.921E3,7.95E2,1.3326E4,7.466E3,9.1E1,4.59E2,2.183E3,7.38E2,4.17E2,3.78E2,1.1115E4,2.211E3,4.291E3,3.175E3,8.1E1,1E1,4.25E2,3.4E1,2.7E2,1.913E3,1.02E2,6.36E2,3.81E2,3.6E1,3.32E2,4.6E1,2.789E3,8.326E3,1.818E3,3.93E2,9.1E2,3.381E3,1.04E2,3.071E3,2E1,6.1E1,2.47E2,1.78E2,1.4E1,2E1,1.2E1,2.58E2,2.2E1,1.891E3,8E0,9.4E1,8.9E1,5.47E2,3.29E2,5.2E1,1.7E1,1.9E1,3.4E1,2.98E2,3.6E1,1E1,2.419E3,3.7E2,6.455E3,1.871E3,1.01E2,1.717E3,1.4E1,3.79E2,5.9E1,8.51E2,2.56E3,8.21E2,9.1E1,1.3E1,5.25E2,2.546E3,2E0,1.8E1,4.6E1,1.5E1,1.1E2,1.37E2,8.7E1,9.1E1,1.1E1,3E0,7E0,1.3E1,4E0,8E0,1.98E2,6E1,3E0,1.9E1,1.19E3,7.01E2,5E0,3E0,1.5E1,7.9E1,5E0,8.4E1,9.2E1,4.55E2,2.8E2,4.9E1,2E0,5E1,3E0,1.6E1,1.1E1,2.3E1,2.46E2,5.2E1,1.3E1,2.3E1,9E0,1E0],"tree_param":{"num_deleted":"0","num_feature":"6","num_nodes":"119","size_leaf_vector":"1"}},{"base_weights":[5.068464E-3,-8.7815955E-2,2.485777E-1,-9.6653E-2,2.9630396E-1,1.6207315E-1,5.3399605E-1,-1.4642476E-1,-6.69593E-2,1.7419182E-1,5.68002E-1,1.1604476E-1,4.034791E-1,4.873208E-1,1.8785537E0,-1.6285317E-1,1.2371808E-1,-7.9151616E-2,1.4940816E-1,3.5417444E-1,-2.3274848E-1,-1.1888996E0,7.283261E-1,-1.5266085E-2,1.8439378E-1,1.0753311E0,2.739672E-1,4.176299E-1,1.2742283E0,-1.09232605E-1,2.0138247E0,-9.660219E-2,-2.1521148E-1,3.3720102E-2,1.0465292E0,-1.1514301E-2,-1.2384178E-1,-2.4061348E-1,2.9644534E-1,9.1390985E-1,2.1113296E-1,3.315179E-1,-5.157187E-1,-1.2737545E-1,-1.7017603E-2,1.5110936E0,1.6189225E-1,1.371477E-1,-1.2986249E-1,1.530471E-1,5.073628E-1,1.7166622E0,5.59991E-1,-5.906297E-1,3.0985627E-1,3.453917E-1,9.282561E-1,2.3205152E0,1.39887E-1,8.7065035E-1,2.2018871E0,-1.7959815E-2,1.5183003E-4,-3.015866E-2,-1.4506548E-2,-2.7323876E-2,1.28659895E-2,3.434442E-2,2.6995885E-1,1.5396063E-2,-1.0560965E-2,-1.7280187E-2,1.0928931E-3,3.9845895E-2,-2.9827176E-2,8.554282E-2,1.0863684E-2,3.739157E-2,1.3387272E-1,-4.814018E-2,4.2510994E-2,2.6325143E-3,1.8522167E-1,-7.443484E-2,4.4177677E-2,8.188348E-2,1.8532674E-1,-2.6896793E-2,9.8096214E-2,3.6742166E-2,3.716514E-3,-1.703129E-2,2.1801556E-2,9.350654E-2,1.4329883E-2,1.7238247E-1,4.2618085E-2,6.28611E-2,2.7493373E-1,2.4088265E-2,1.267948E-1,-6.356435E-2,3.3487737E-2,9.5301434E-2,2.6992349E-2,3.1302903E-2,1.21510446E-1,8.3825275E-2,3.0071595E-1,6.10047E-1,1.6166544E-1,-4.1170172E-2,1.0930897E-1,1.6602175E-1,-1.2618896E-1,2.5948948E-1,1.2690794E-1],"categories":[],"categories_nodes":[],"categories_segments":[],"categories_sizes":[],"default_left":[0,0,0,0,0,0,0,0,0,0,0,0,0,0,0,0,0,0,0,0,0,0,0,0,0,0,0,0,0,0,0,0,0,0,0,0,0,0,0,0,0,0,0,0,0,0,0,0,0,0,0,0,0,0,0,0,0,0,0,0,0,0,0,0,0,0,0,0,0,0,0,0,0,0,0,0,0,0,0,0,0,0,0,0,0,0,0,0,0,0,0,0,0,0,0,0,0,0,0,0,0,0,0,0,0,0,0,0,0,0,0,0,0,0,0,0,0],"id":11,"left_children":[1,3,5,7,9,11,13,15,17,19,21,23,25,27,29,31,33,35,37,39,41,43,45,47,49,51,53,55,57,-1,59,61,63,65,67,69,71,73,75,77,79,81,83,-1,-1,85,87,89,91,93,95,97,99,101,103,105,107,109,111,113,115,-1,-1,-1,-1,-1,-1,-1,-1,-1,-1,-1,-1,-1,-1,-1,-1,-1,-1,-1,-1,-1,-1,-1,-1,-1,-1,-1,-1,-1,-1,-1,-1,-1,-1,-1,-1,-1,-1,-1,-1,-1,-1,-1,-1,-1,-1,-1,-1,-1,-1,-1,-1,-1,-1,-1,-1],"loss_changes":[5.707019E2,6.2028915E1,1.7192856E2,2.637825E1,1.353706E1,5.9377625E1,1.0075183E2,2.9626144E1,2.951807E1,2.0956453E1,3.6638462E1,4.032734E1,7.4188385E1,8.540259E1,2.390094E1,2.1794434E1,3.1773294E1,3.200618E1,3.4307896E1,1.5659988E1,1.4221981E1,7.3411846E-1,5.1631523E1,2.6898092E1,2.9838783E1,4.464818E1,2.2493275E1,5.2833145E1,1.5040485E2,0E0,9.262283E0,2.2623203E1,2.1235E1,1.0235068E1,3.8589046E1,6.563002E1,4.2073196E1,6.16189E0,4.5469143E1,8.6753845E0,2.3766298E1,1.3874429E1,1.3244639E1,0E0,0E0,1.0089249E1,2.4614264E1,1.5204797E1,1.2406249E1,2.0410877E1,2.5040337E1,6.6811554E1,1.7315945E1,1.4210186E0,1.7489777E1,3.5196487E1,3.078453E1,1.6573471E2,3.3048134E1,1.724906E1,1.2837311E1,0E0,0E0,0E0,0E0,0E0,0E0,0E0,0E0,0E0,0E0,0E0,0E0,0E0,0E0,0E0,0E0,0E0,0E0,0E0,0E0,0E0,0E0,0E0,0E0,0E0,0E0,0E0,0E0,0E0,0E0,0E0,0E0,0E0,0E0,0E0,0E0,0E0,0E0,0E0,0E0,0E0,0E0,0E0,0E0,0E0,0E0,0E0,0E0,0E0,0E0,0E0,0E0,0E0,0E0,0E0,0E0],"parents":[2147483647,0,0,1,1,2,2,3,3,4,4,5,5,6,6,7,7,8,8,9,9,10,10,11,11,12,12,13,13,14,14,15,15,16,16,17,17,18,18,19,19,20,20,21,21,22,22,23,23,24,24,25,25,26,26,27,27,28,28,30,30,31,31,32,32,33,33,34,34,35,35,36,36,37,37,38,38,39,39,40,40,41,41,42,42,45,45,46,46,47,47,48,48,49,49,50,50,51,51,52,52,53,53,54,54,55,55,56,56,57,57,58,58,59,59,60,60],"right_children":[2,4,6,8,10,12,14,16,18,20,22,24,26,28,30,32,34,36,38,40,42,44,46,48,50,52,54,56,58,-1,60,62,64,66,68,70,72,74,76,78,80,82,84,-1,-1,86,88,90,92,94,96,98,100,102,104,106,108,110,112,114,116,-1,-1,-1,-1,-1,-1,-1,-1,-1,-1,-1,-1,-1,-1,-1,-1,-1,-1,-1,-1,-1,-1,-1,-1,-1,-1,-1,-1,-1,-1,-1,-1,-1,-1,-1,-1,-1,-1,-1,-1,-1,-1,-1,-1,-1,-1,-1,-1,-1,-1,-1,-1,-1,-1,-1,-1],"split_conditions":[4.1E0,9.2916664E1,9.475E1,1E-1,1.7333334E1,1.96E1,5.15E1,9.0625E1,2.5241667E1,1.61125E1,1E-1,8.6791664E1,1.73E1,2.1804167E1,9.575E1,1.6304167E1,1.86E1,1.9225E1,7.7208336E1,9.3166664E1,1.1E0,2.15E1,1.8245832E1,2.01E1,2.3904167E1,9.6E1,8.3583336E1,3.51E1,2.235E1,-1.09232605E-1,1.33E1,8.35E1,1.9225E1,1.3775E1,9.1666664E1,8.4291664E1,8.5666664E1,7.0166664E1,3E-1,1.3958333E1,3E-1,9.3583336E1,3.7E0,-1.2737545E-1,-1.7017603E-2,9.6E1,2.0204166E1,8.6E1,2.56E1,4.2E0,4.9E0,1.5866667E1,1.61E1,4.14E1,1.8245832E1,9.9041664E1,6.5E0,9.2E0,9.5958336E1,1.31E1,1.74E1,-1.7959815E-2,1.5183003E-4,-3.015866E-2,-1.4506548E-2,-2.7323876E-2,1.28659895E-2,3.434442E-2,2.6995885E-1,1.5396063E-2,-1.0560965E-2,-1.7280187E-2,1.0928931E-3,3.9845895E-2,-2.9827176E-2,8.554282E-2,1.0863684E-2,3.739157E-2,1.3387272E-1,-4.814018E-2,4.2510994E-2,2.6325143E-3,1.8522167E-1,-7.443484E-2,4.4177677E-2,8.188348E-2,1.8532674E-1,-2.6896793E-2,9.8096214E-2,3.6742166E-2,3.716514E-3,-1.703129E-2,2.1801556E-2,9.350654E-2,1.4329883E-2,1.7238247E-1,4.2618085E-2,6.28611E-2,2.7493373E-1,2.4088265E-2,1.267948E-1,-6.356435E-2,3.3487737E-2,9.5301434E-2,2.6992349E-2,3.1302903E-2,1.21510446E-1,8.3825275E-2,3.0071595E-1,6.10047E-1,1.6166544E-1,-4.1170172E-2,1.0930897E-1,1.6602175E-1,-1.2618896E-1,2.5948948E-1,1.2690794E-1],"split_indices":[3,5,5,3,4,3,3,5,4,4,3,5,0,4,5,4,4,4,5,5,3,0,4,0,4,1,5,3,4,0,0,5,4,4,5,5,5,5,3,4,3,5,3,0,0,1,4,1,4,3,3,4,0,3,4,5,2,3,5,0,0,0,0,0,0,0,0,0,0,0,0,0,0,0,0,0,0,0,0,0,0,0,0,0,0,0,0,0,0,0,0,0,0,0,0,0,0,0,0,0,0,0,0,0,0,0,0,0,0,0,0,0,0,0,0,0,0],"split_type":[0,0,0,0,0,0,0,0,0,0,0,0,0,0,0,0,0,0,0,0,0,0,0,0,0,0,0,0,0,0,0,0,0,0,0,0,0,0,0,0,0,0,0,0,0,0,0,0,0,0,0,0,0,0,0,0,0,0,0,0,0,0,0,0,0,0,0,0,0,0,0,0,0,0,0,0,0,0,0,0,0,0,0,0,0,0,0,0,0,0,0,0,0,0,0,0,0,0,0,0,0,0,0,0,0,0,0,0,0,0,0,0,0,0,0,0,0],"sum_hessian":[2.523E4,1.8264E4,6.966E3,1.7854E4,4.1E2,5.347E3,1.619E3,6.67E3,1.1184E4,2.84E2,1.26E2,4.492E3,8.55E2,1.566E3,5.3E1,6.288E3,3.82E2,1.0588E4,5.96E2,1.97E2,8.7E1,1E1,1.16E2,1.538E3,2.954E3,1.37E2,7.18E2,1.44E3,1.26E2,2E0,5.1E1,2.777E3,3.511E3,3.49E2,3.3E1,4.213E3,6.375E3,1.63E2,4.33E2,3.9E1,1.58E2,2.9E1,5.8E1,9E0,1E0,4.8E1,6.8E1,6.6E2,8.78E2,2.694E3,2.6E2,6E1,7.7E1,2.8E1,6.9E2,1.263E3,1.77E2,6.5E1,6.1E1,8E0,4.3E1,1.504E3,1.273E3,1.572E3,1.939E3,8.2E1,2.67E2,2.4E1,9E0,1.527E3,2.686E3,4.676E3,1.699E3,1.3E1,1.5E2,1.08E2,3.25E2,1.8E1,2.1E1,3.7E1,1.21E2,2.5E1,4E0,4.7E1,1.1E1,1.7E1,3.1E1,4.5E1,2.3E1,1.99E2,4.61E2,7.87E2,9.1E1,3.2E1,2.662E3,1.5E1,2.45E2,3E1,3E1,5.4E1,2.3E1,2.7E1,1E0,3.9E1,6.51E2,1.219E3,4.4E1,1.71E2,6E0,9E0,5.6E1,3.9E1,2.2E1,6E0,2E0,2.9E1,1.4E1],"tree_param":{"num_deleted":"0","num_feature":"6","num_nodes":"117","size_leaf_vector":"1"}},{"base_weights":[-2.278533E-3,-6.5941505E-2,3.587914E-1,-1.638692E-1,-1.6727494E-2,3.2043567E-1,1.0946184E0,-7.077954E-1,-1.583636E-1,-8.500122E-2,5.946785E-2,1.0900073E0,3.0293888E-1,2.6925233E-1,1.2434635E0,1.0519787E-1,-7.325266E-1,-1.4685065E-1,-3.4805205E-1,-1.2126358E-1,1.2599102E-1,-2.3753576E-2,1.2535682E-1,-8.760559E-1,1.4161341E0,2.5285047E-1,5.332148E-1,-6.943716E-2,1.6355832E0,4.4205067E-1,1.4113834E0,1.4624995E-2,1.154685E-3,-8.3677804E-1,-6.0436726E-1,-1.3783497E-1,-3.371501E-1,-3.618207E-1,2.6278925E-1,-4.1157243E-1,-9.327093E-2,4.95038E0,9.091755E-2,6.0889445E-2,-1.1361592E-1,1.2229373E-1,2.0352387E-1,-1.03857495E-1,4.558269E-2,1.7373154E0,9.13218E-1,-6.688366E-2,2.8695494E-1,7.7982163E-1,3.3042872E-1,1.1281108E-1,-2.2262006E-1,2.31214E-1,1.8831308E-1,1.4562318E-1,-2.5862837E-1,2.0993302E0,9.746916E-1,-4.953022E-2,-9.166532E-2,-4.9315922E-2,-8.708394E-2,-1.9761872E-2,-1.0652344E-2,-5.5495244E-2,-2.0901015E-2,-4.2724907E-2,-4.6170265E-3,-5.646518E-2,-3.3251986E-2,-3.1102726E-3,-2.070271E-2,-4.867141E-2,6.843864E-1,8.109594E-3,1.15729265E-1,2.8026124E-2,-7.1251392E-3,-2.2416899E-2,4.8846053E-3,1.3761145E-2,-2.1432327E-2,1.4056127E-1,2.343628E-1,1.3314587E-1,-1.6414555E-2,1.3315652E-1,-1.619791E-2,3.091239E-2,-2.4846628E-2,6.6398196E-2,3.3501902E-1,2.636372E-2,1.1147417E-1,1.6059898E-2,-6.552771E-2,-3.1009675E-3,3.134793E-2,5.215231E-3,-1.07708864E-1,-9.109642E-2,2.1793559E-1,-2.1272747E-1,1.1610396E-1],"categories":[],"categories_nodes":[],"categories_segments":[],"categories_sizes":[],"default_left":[0,0,0,0,0,0,0,0,0,0,0,0,0,0,0,0,0,0,0,0,0,0,0,0,0,0,0,0,0,0,0,0,0,0,0,0,0,0,0,0,0,0,0,0,0,0,0,0,0,0,0,0,0,0,0,0,0,0,0,0,0,0,0,0,0,0,0,0,0,0,0,0,0,0,0,0,0,0,0,0,0,0,0,0,0,0,0,0,0,0,0,0,0,0,0,0,0,0,0,0,0,0,0,0,0,0,0,0,0],"id":12,"left_children":[1,3,5,7,9,11,13,15,17,19,21,23,25,27,29,31,33,35,37,39,41,43,45,47,49,51,53,55,57,59,61,-1,-1,63,65,67,69,71,-1,73,75,77,79,81,83,85,-1,-1,-1,87,89,91,93,95,97,-1,99,-1,101,-1,103,105,107,-1,-1,-1,-1,-1,-1,-1,-1,-1,-1,-1,-1,-1,-1,-1,-1,-1,-1,-1,-1,-1,-1,-1,-1,-1,-1,-1,-1,-1,-1,-1,-1,-1,-1,-1,-1,-1,-1,-1,-1,-1,-1,-1,-1,-1,-1],"loss_changes":[5.832214E2,1.0394722E2,1.06981995E2,2.1491272E1,7.468698E1,4.8359375E1,2.2761307E1,1.5247116E0,1.5548294E1,5.794922E1,3.7207672E1,5.2535492E1,4.06615E1,1.39964285E1,2.0773254E1,9.844981E-3,4.2953873E-1,1.1510345E1,1.766851E1,5.247515E1,1.8754004E2,2.2817972E1,2.1905663E1,3.0708857E0,9.558823E0,3.1718185E1,3.1297623E1,4.837237E0,5.439556E0,2.0984468E1,3.73089E1,0E0,0E0,5.27895E-1,6.077213E-1,1.2021019E1,8.368401E0,8.385838E0,0E0,6.685791E0,4.1683105E1,8.5691376E1,1.146892E1,4.4806385E1,2.614372E1,1.9530258E1,0E0,0E0,0E0,4.9514923E0,1.3285873E1,3.758478E1,3.1258575E1,8.233676E1,1.7936264E1,0E0,3.9186926E0,0E0,9.2076294E-2,0E0,4.6346827E0,1.4030365E1,4.9869545E1,0E0,0E0,0E0,0E0,0E0,0E0,0E0,0E0,0E0,0E0,0E0,0E0,0E0,0E0,0E0,0E0,0E0,0E0,0E0,0E0,0E0,0E0,0E0,0E0,0E0,0E0,0E0,0E0,0E0,0E0,0E0,0E0,0E0,0E0,0E0,0E0,0E0,0E0,0E0,0E0,0E0,0E0,0E0,0E0,0E0,0E0],"parents":[2147483647,0,0,1,1,2,2,3,3,4,4,5,5,6,6,7,7,8,8,9,9,10,10,11,11,12,12,13,13,14,14,15,15,16,16,17,17,18,18,19,19,20,20,21,21,22,22,23,23,24,24,25,25,26,26,27,27,28,28,29,29,30,30,33,33,34,34,35,35,36,36,37,37,39,39,40,40,41,41,42,42,43,43,44,44,45,45,49,49,50,50,51,51,52,52,53,53,54,54,56,56,58,58,60,60,61,61,62,62],"right_children":[2,4,6,8,10,12,14,16,18,20,22,24,26,28,30,32,34,36,38,40,42,44,46,48,50,52,54,56,58,60,62,-1,-1,64,66,68,70,72,-1,74,76,78,80,82,84,86,-1,-1,-1,88,90,92,94,96,98,-1,100,-1,102,-1,104,106,108,-1,-1,-1,-1,-1,-1,-1,-1,-1,-1,-1,-1,-1,-1,-1,-1,-1,-1,-1,-1,-1,-1,-1,-1,-1,-1,-1,-1,-1,-1,-1,-1,-1,-1,-1,-1,-1,-1,-1,-1,-1,-1,-1,-1,-1,-1],"split_conditions":[1.08E1,8.1083336E1,9.8625E1,4E1,9E-1,1.2470834E1,2.04E1,3E1,9.8E1,2.1770834E1,8.7125E1,8.9416664E1,2.73E1,9.9041664E1,1.3504167E1,3.06E1,3.7E1,2E-1,7.8E0,6.6E1,1.67E1,2.12E1,9.9041664E1,1.65E1,1.1808333E1,8.4375E1,2.00375E1,9.5E1,1E-1,1.1370833E1,1.6358334E1,1.4624995E-2,1.154685E-3,3.3E1,3E-1,7.5041664E1,3E-1,2.44875E1,2.6278925E-1,8.3833336E1,1.7575E1,1E-1,9.1041664E1,9.1E1,8.4875E1,1.02E1,2.0352387E-1,-1.03857495E-1,4.558269E-2,1.5E0,9.475E1,1.11E1,9.7916664E1,2.18E1,9.7083336E1,1.1281108E-1,1.73E1,2.31214E-1,1.29E1,1.4562318E-1,1.30125E1,1.3E1,1.48E1,-4.953022E-2,-9.166532E-2,-4.9315922E-2,-8.708394E-2,-1.9761872E-2,-1.0652344E-2,-5.5495244E-2,-2.0901015E-2,-4.2724907E-2,-4.6170265E-3,-5.646518E-2,-3.3251986E-2,-3.1102726E-3,-2.070271E-2,-4.867141E-2,6.843864E-1,8.109594E-3,1.15729265E-1,2.8026124E-2,-7.1251392E-3,-2.2416899E-2,4.8846053E-3,1.3761145E-2,-2.1432327E-2,1.4056127E-1,2.343628E-1,1.3314587E-1,-1.6414555E-2,1.3315652E-1,-1.619791E-2,3.091239E-2,-2.4846628E-2,6.6398196E-2,3.3501902E-1,2.636372E-2,1.1147417E-1,1.6059898E-2,-6.552771E-2,-3.1009675E-3,3.134793E-2,5.215231E-3,-1.07708864E-1,-9.109642E-2,2.1793559E-1,-2.1272747E-1,1.1610396E-1],"split_indices":[3,5,5,1,3,4,3,1,1,4,5,5,3,5,4,0,1,2,2,1,0,0,5,3,4,5,4,1,2,4,4,0,0,1,3,5,2,4,0,5,4,3,5,1,5,3,0,0,0,2,5,3,5,0,5,0,3,0,0,0,4,0,0,0,0,0,0,0,0,0,0,0,0,0,0,0,0,0,0,0,0,0,0,0,0,0,0,0,0,0,0,0,0,0,0,0,0,0,0,0,0,0,0,0,0,0,0,0,0],"split_type":[0,0,0,0,0,0,0,0,0,0,0,0,0,0,0,0,0,0,0,0,0,0,0,0,0,0,0,0,0,0,0,0,0,0,0,0,0,0,0,0,0,0,0,0,0,0,0,0,0,0,0,0,0,0,0,0,0,0,0,0,0,0,0,0,0,0,0,0,0,0,0,0,0,0,0,0,0,0,0,0,0,0,0,0,0,0,0,0,0,0,0,0,0,0,0,0,0,0,0,0,0,0,0,0,0,0,0,0,0],"sum_hessian":[2.537E4,2.1568E4,3.802E3,7.213E3,1.4355E4,3.615E3,1.87E2,7.1E1,7.142E3,7.571E3,6.784E3,7.9E1,3.536E3,2.9E1,1.58E2,2E0,6.9E1,6.735E3,4.07E2,6.461E3,1.11E3,2.998E3,3.786E3,1.1E1,6.8E1,2.906E3,6.3E2,2.4E1,5E0,2.8E1,1.3E2,1E0,1E0,3.5E1,3.4E1,6.432E3,3.03E2,4.06E2,1E0,5.67E2,5.894E3,7E0,1.103E3,1.544E3,1.454E3,3.781E3,5E0,1E1,1E0,4E1,2.8E1,2.8E2,2.626E3,2.83E2,3.47E2,2E0,2.2E1,3E0,2E0,1.1E1,1.7E1,4.9E1,8.1E1,8E0,2.7E1,2.6E1,8E0,2.209E3,4.223E3,1.11E2,1.92E2,3.36E2,7E1,1.91E2,3.76E2,3.812E3,2.082E3,2E0,5E0,1.094E3,9E0,5.8E2,9.64E2,8.65E2,5.89E2,3.617E3,1.64E2,2.8E1,1.2E1,2E1,8E0,1.7E1,2.63E2,2.522E3,1.04E2,2.72E2,1.1E1,3.21E2,2.6E1,1.2E1,1E1,1E0,1E0,1.3E1,4E0,1E0,4.8E1,4E0,7.7E1],"tree_param":{"num_deleted":"0","num_feature":"6","num_nodes":"109","size_leaf_vector":"1"}},{"base_weights":[-3.3079938E-3,-6.283637E-2,2.3426692E-1,-7.073605E-2,3.8557634E-1,1.5700959E-1,5.37374E-1,-1.2978497E-1,-3.9844766E-2,8.7038374E-1,2.5734508E-1,7.742858E-1,1.4005378E-1,4.4941205E-1,1.0986161E0,-3.3413798E-1,-1.1944069E-1,-2.458794E-1,-2.1313954E-2,5.1858115E-1,1.5670397E0,-1.6852453E-2,5.9529126E-1,5.140253E-2,2.1045601E0,8.701915E-2,3.4399632E-1,6.2756944E-1,2.9756504E-1,1.4626172E0,5.9497124E-1,-4.7180495E-1,-2.5072166E-1,4.0508382E-2,-1.3115096E-1,3.9497375E-1,-3.2125348E-1,-9.575439E-2,1.3441498E-3,8.403872E-1,-8.5268176E-1,3.4400317E-1,2.0504076E0,2.3641174E-1,-6.342799E-2,7.898485E-1,2.5560367E-1,-2.1842532E-1,1.9344862E0,9.423409E-1,5.2645397E0,-1.03298604E-1,1.1640171E-1,1.8947644E0,2.9644895E-1,1.8010776E-1,9.43771E-1,2.4924943E-1,1.4060248E0,4.7060376E-1,1.9049759E0,2.104013E-2,9.770075E-1,-2.2906581E-2,-7.398908E-2,1.3897139E-1,-3.0660389E-2,-1.7352669E-2,3.4505554E-2,-1.345695E-2,4.619518E-2,7.3375516E-2,-3.7908268E-3,4.935681E-2,-3.3549633E-2,1.6173994E-2,-1.4088108E-2,1.5849343E-2,-3.319845E-3,-4.512426E-2,1.07470214E-1,2.8383775E-2,-1.6576678E-1,6.548654E-2,-9.160165E-2,2.4103427E-1,2.7803315E-2,1.6467351E-2,-4.3988172E-2,1.2370054E-1,1.923655E-2,-4.4277064E-3,1.9755332E-1,3.1946715E-2,-6.57867E-2,3.8765017E-2,4.8989415E-1,3.7644498E-2,2.1580604E-1,5.931598E-1,-3.6949184E-2,-1.3472818E-2,6.967542E-2,1.8715193E-2,2.0493073E-3,-4.333385E-2,2.382052E-1,3.25613E-2,-5.7304896E-2,1.5467618E-1,1.9199437E-3,1.1253958E-1,-5.307282E-2,-2.8816074E-2,3.1036532E-2,1.7056128E-1,4.227175E-2,1.2761344E-1,-1.1261128E-2,1.2568514E-1,2.4850655E-1,-4.415764E-2,1.5595886E-1,1.5817125E-1,7.4774496E-2],"categories":[],"categories_nodes":[],"categories_segments":[],"categories_sizes":[],"default_left":[0,0,0,0,0,0,0,0,0,0,0,0,0,0,0,0,0,0,0,0,0,0,0,0,0,0,0,0,0,0,0,0,0,0,0,0,0,0,0,0,0,0,0,0,0,0,0,0,0,0,0,0,0,0,0,0,0,0,0,0,0,0,0,0,0,0,0,0,0,0,0,0,0,0,0,0,0,0,0,0,0,0,0,0,0,0,0,0,0,0,0,0,0,0,0,0,0,0,0,0,0,0,0,0,0,0,0,0,0,0,0,0,0,0,0,0,0,0,0,0,0,0,0,0,0],"id":13,"left_children":[1,3,5,7,9,11,13,15,17,19,21,23,25,27,29,31,33,35,37,39,41,43,45,47,49,51,53,55,57,59,61,63,65,67,69,71,73,75,77,79,81,83,85,-1,87,89,91,93,95,97,99,101,103,105,107,109,111,113,115,117,119,121,123,-1,-1,-1,-1,-1,-1,-1,-1,-1,-1,-1,-1,-1,-1,-1,-1,-1,-1,-1,-1,-1,-1,-1,-1,-1,-1,-1,-1,-1,-1,-1,-1,-1,-1,-1,-1,-1,-1,-1,-1,-1,-1,-1,-1,-1,-1,-1,-1,-1,-1,-1,-1,-1,-1,-1,-1,-1,-1,-1,-1,-1,-1],"loss_changes":[3.5842682E2,7.181586E1,1.1882837E2,3.6323532E1,2.1596786E1,4.225962E1,5.0404633E1,1.4419052E1,4.9922592E1,1.7078598E1,2.586329E1,1.0374818E2,4.2595985E1,2.3971298E1,2.4612274E1,3.6598396E0,1.2202599E1,5.224662E1,2.0238594E1,2.2780617E1,1.3482891E1,1.7338669E1,8.0592E0,3.6498238E1,1.345974E2,1.750946E1,5.938482E1,5.7840134E1,2.557061E1,3.4209564E1,1.3135193E1,7.834732E0,1.9402029E1,2.9066654E1,1.2365295E1,1.6746185E1,1.1376396E1,3.2558403E1,4.9946033E1,1.2893522E1,9.619329E0,3.7334085E0,1.0174828E1,0E0,1.3210495E1,2.0868362E1,2.4328838E1,1.5101624E1,3.937066E1,1.9138758E1,3.9773926E1,1.0629761E1,1.8391815E1,2.8259163E1,2.0219475E1,3.757423E1,6.4870636E1,1.5362032E1,5.170746E0,1.2358444E1,1.7555008E1,1.8482626E1,3.8081856E0,0E0,0E0,0E0,0E0,0E0,0E0,0E0,0E0,0E0,0E0,0E0,0E0,0E0,0E0,0E0,0E0,0E0,0E0,0E0,0E0,0E0,0E0,0E0,0E0,0E0,0E0,0E0,0E0,0E0,0E0,0E0,0E0,0E0,0E0,0E0,0E0,0E0,0E0,0E0,0E0,0E0,0E0,0E0,0E0,0E0,0E0,0E0,0E0,0E0,0E0,0E0,0E0,0E0,0E0,0E0,0E0,0E0,0E0,0E0,0E0,0E0,0E0],"parents":[2147483647,0,0,1,1,2,2,3,3,4,4,5,5,6,6,7,7,8,8,9,9,10,10,11,11,12,12,13,13,14,14,15,15,16,16,17,17,18,18,19,19,20,20,21,21,22,22,23,23,24,24,25,25,26,26,27,27,28,28,29,29,30,30,31,31,32,32,33,33,34,34,35,35,36,36,37,37,38,38,39,39,40,40,41,41,42,42,44,44,45,45,46,46,47,47,48,48,49,49,50,50,51,51,52,52,53,53,54,54,55,55,56,56,57,57,58,58,59,59,60,60,61,61,62,62],"right_children":[2,4,6,8,10,12,14,16,18,20,22,24,26,28,30,32,34,36,38,40,42,44,46,48,50,52,54,56,58,60,62,64,66,68,70,72,74,76,78,80,82,84,86,-1,88,90,92,94,96,98,100,102,104,106,108,110,112,114,116,118,120,122,124,-1,-1,-1,-1,-1,-1,-1,-1,-1,-1,-1,-1,-1,-1,-1,-1,-1,-1,-1,-1,-1,-1,-1,-1,-1,-1,-1,-1,-1,-1,-1,-1,-1,-1,-1,-1,-1,-1,-1,-1,-1,-1,-1,-1,-1,-1,-1,-1,-1,-1,-1,-1,-1,-1,-1,-1,-1,-1,-1,-1,-1,-1],"split_conditions":[7.6E0,9.4125E1,2.45E1,1E-1,1.35E1,7.9E0,9.8625E1,5.1E1,7.5791664E1,1.26E1,1.6870832E1,2.1770834E1,8E-1,1.9904167E1,1.7029167E1,2.34E1,6.875E1,1.5529166E1,1.7029167E1,1.23E1,9.4916664E1,1.2316667E1,1.8695833E1,1E2,9.375E1,8.4625E1,1.2316667E1,1.6408333E1,9.7666664E1,1.3695833E1,1.81E1,1.83E1,1.6E1,1.5658334E1,3.12E1,7.3E1,6.1708332E1,1.30125E1,1.8975E1,8.7E0,9.9E1,7E-1,1.4575E1,2.3641174E-1,1.5658334E1,5.4E0,6.8E0,1.8304167E1,1.89E1,2.4158333E1,2.15E1,2.04E1,9.275E1,8.9666664E1,9.7916664E1,1.1583333E1,9.8291664E1,1.91E1,2.1070833E1,1.1370833E1,9.9041664E1,5.15E1,1.9033333E1,-2.2906581E-2,-7.398908E-2,1.3897139E-1,-3.0660389E-2,-1.7352669E-2,3.4505554E-2,-1.345695E-2,4.619518E-2,7.3375516E-2,-3.7908268E-3,4.935681E-2,-3.3549633E-2,1.6173994E-2,-1.4088108E-2,1.5849343E-2,-3.319845E-3,-4.512426E-2,1.07470214E-1,2.8383775E-2,-1.6576678E-1,6.548654E-2,-9.160165E-2,2.4103427E-1,2.7803315E-2,1.6467351E-2,-4.3988172E-2,1.2370054E-1,1.923655E-2,-4.4277064E-3,1.9755332E-1,3.1946715E-2,-6.57867E-2,3.8765017E-2,4.8989415E-1,3.7644498E-2,2.1580604E-1,5.931598E-1,-3.6949184E-2,-1.3472818E-2,6.967542E-2,1.8715193E-2,2.0493073E-3,-4.333385E-2,2.382052E-1,3.25613E-2,-5.7304896E-2,1.5467618E-1,1.9199437E-3,1.1253958E-1,-5.307282E-2,-2.8816074E-2,3.1036532E-2,1.7056128E-1,4.227175E-2,1.2761344E-1,-1.1261128E-2,1.2568514E-1,2.4850655E-1,-4.415764E-2,1.5595886E-1,1.5817125E-1,7.4774496E-2],"split_indices":[3,5,3,3,0,3,5,1,5,0,4,4,2,4,4,0,5,4,4,0,5,4,4,1,5,5,4,4,5,4,0,0,4,4,0,1,5,4,4,0,1,2,4,0,4,3,3,4,0,4,0,3,5,5,5,4,5,0,4,4,5,3,4,0,0,0,0,0,0,0,0,0,0,0,0,0,0,0,0,0,0,0,0,0,0,0,0,0,0,0,0,0,0,0,0,0,0,0,0,0,0,0,0,0,0,0,0,0,0,0,0,0,0,0,0,0,0,0,0,0,0,0,0,0,0],"split_type":[0,0,0,0,0,0,0,0,0,0,0,0,0,0,0,0,0,0,0,0,0,0,0,0,0,0,0,0,0,0,0,0,0,0,0,0,0,0,0,0,0,0,0,0,0,0,0,0,0,0,0,0,0,0,0,0,0,0,0,0,0,0,0,0,0,0,0,0,0,0,0,0,0,0,0,0,0,0,0,0,0,0,0,0,0,0,0,0,0,0,0,0,0,0,0,0,0,0,0,0,0,0,0,0,0,0,0,0,0,0,0,0,0,0,0,0,0,0,0,0,0,0,0,0,0],"sum_hessian":[2.5342E4,2.0265E4,5.077E3,1.9915E4,3.5E2,4.047E3,1.03E3,6.839E3,1.3076E4,7.2E1,2.78E2,1.07E2,3.94E3,8.92E2,1.38E2,3.28E2,6.511E3,1.078E3,1.1998E4,4.9E1,2.3E1,1.54E2,1.24E2,7E1,3.7E1,3.128E3,8.12E2,4.09E2,4.83E2,7.9E1,5.9E1,1.22E2,2.06E2,4.44E2,6.067E3,1.13E2,9.65E2,2.799E3,9.199E3,4E1,9E0,7E0,1.6E1,2E0,1.52E2,7.8E1,4.6E1,6.2E1,8E0,2.8E1,9E0,4.18E2,2.71E3,2.3E1,7.89E2,1.7E2,2.39E2,4.64E2,1.9E1,2.5E1,5.4E1,2.4E1,3.5E1,6.5E1,5.7E1,6E0,2E2,2.61E2,1.83E2,6.033E3,3.4E1,6.3E1,5E1,1.6E1,9.49E2,4.17E2,2.382E3,1.657E3,7.542E3,6E0,3.4E1,4E0,5E0,6E0,1E0,1.3E1,3E0,9.5E1,5.7E1,4.4E1,3.4E1,4E1,6E0,2.8E1,3.4E1,6E0,2E0,2E1,8E0,8E0,1E0,4.03E2,1.5E1,1.559E3,1.151E3,4E0,1.9E1,7.64E2,2.5E1,1.7E1,1.53E2,2.13E2,2.6E1,4.7E1,4.17E2,1.4E1,5E0,1E1,1.5E1,2.7E1,2.7E1,1.9E1,5E0,8E0,2.7E1],"tree_param":{"num_deleted":"0","num_feature":"6","num_nodes":"125","size_leaf_vector":"1"}},{"base_weights":[4.2339526E-3,-4.7633037E-2,2.985332E-1,-6.438678E-2,1.7209744E-1,2.1243072E-1,5.394591E-1,-2.048752E-1,-5.2265763E-2,1.1689089E-1,5.1915455E-1,1.1532104E0,1.9731748E-1,7.6602626E-1,2.9038677E-1,-1.480042E-1,-3.519932E-1,-5.3918943E-2,8.4286314E-1,3.552158E-1,2.548955E-2,9.330318E-1,-2.1740739E-1,-7.019466E-2,1.3562747E0,1.3748147E-1,3.857335E-1,5.87615E-1,1.4138923E0,8.332382E-2,4.4747773E-1,-4.2696935E-1,-1.0624863E-1,1.2211506E0,-3.7278697E-1,-1.12127095E-1,-3.0088788E-2,1.1428736E0,8.550549E-3,-8.2092965E-1,4.4411156E-1,-2.1720244E-2,5.409379E-1,7.103009E-1,2.9515038E0,-3.228339E-1,2.4555821E0,1.6915497E0,5.2981514E-1,2.961417E-1,7.996025E-2,7.388982E-2,5.958051E-1,4.6095097E-1,1.6075724E0,5.886785E-1,1.9593542E0,-3.096088E-1,3.48832E-1,3.584121E-1,8.7533325E-1,-4.520751E-2,1.6443424E-1,-1.2894332E-2,3.7774436E-2,-2.2282291E-2,1.5545098E-1,-4.3645415E-2,-8.321643E-3,-5.082693E-3,-2.5672337E-2,-6.1490885E-3,8.282772E-3,2.6832518E-1,8.1085615E-2,-2.6653547E-2,7.392631E-2,-8.824692E-2,3.5877932E-2,3.5203576E-2,1.3505436E-1,9.413065E-3,-2.2258125E-2,9.9024795E-2,2.207677E-2,4.2957906E-2,2.2094996E-1,4.8423752E-1,-1.0423654E-1,-6.243925E-3,-8.011609E-2,4.3291864E-1,-6.458132E-2,6.9657646E-2,1.7830835E-1,-8.830803E-2,8.6698525E-2,5.6859027E-3,5.301128E-2,-7.871023E-3,2.2264523E-2,-1.2010865E-2,5.5666666E-2,1.0106331E-1,3.724767E-2,6.145496E-2,-4.2154573E-2,2.0213988E-1,-9.2768505E-2,-9.183173E-3,1.4031826E-1,2.8338444E-1,3.768565E-2,-8.2197815E-2,7.31444E-3,-6.227352E-2,4.584886E-2,9.2149675E-2,1.7191412E-2,-1.1377404E-1,1.0422393E-1],"categories":[],"categories_nodes":[],"categories_segments":[],"categories_sizes":[],"default_left":[0,0,0,0,0,0,0,0,0,0,0,0,0,0,0,0,0,0,0,0,0,0,0,0,0,0,0,0,0,0,0,0,0,0,0,0,0,0,0,0,0,0,0,0,0,0,0,0,0,0,0,0,0,0,0,0,0,0,0,0,0,0,0,0,0,0,0,0,0,0,0,0,0,0,0,0,0,0,0,0,0,0,0,0,0,0,0,0,0,0,0,0,0,0,0,0,0,0,0,0,0,0,0,0,0,0,0,0,0,0,0,0,0,0,0,0,0,0,0,0,0],"id":14,"left_children":[1,3,5,7,9,11,13,15,17,19,21,23,25,27,29,31,33,35,37,39,41,43,45,-1,47,49,51,53,55,57,59,61,63,65,67,69,71,73,75,77,79,81,83,85,87,89,91,93,95,97,99,101,103,105,107,109,111,113,115,117,119,-1,-1,-1,-1,-1,-1,-1,-1,-1,-1,-1,-1,-1,-1,-1,-1,-1,-1,-1,-1,-1,-1,-1,-1,-1,-1,-1,-1,-1,-1,-1,-1,-1,-1,-1,-1,-1,-1,-1,-1,-1,-1,-1,-1,-1,-1,-1,-1,-1,-1,-1,-1,-1,-1,-1,-1,-1,-1,-1,-1],"loss_changes":[3.8641763E2,7.92402E1,7.85686E1,3.404313E1,2.915805E1,3.952661E1,5.6096313E1,1.3234291E1,2.7290195E1,2.8679436E1,6.391571E1,1.7527542E1,3.0984467E1,5.950537E1,1.5478432E1,1.3315292E1,1.4913738E1,2.5488926E1,8.500515E0,3.852693E1,2.3202253E1,5.8146744E1,2.2209845E1,0E0,1.0187447E1,1.9059479E1,4.338877E1,5.2356857E1,4.926033E1,2.1703651E1,1.0013329E1,8.491644E0,1.1021797E1,3.2345524E0,8.020279E0,4.730179E1,4.6246067E1,1.0610081E1,2.2071276E0,2.2041779E0,2.7901115E1,2.0358868E1,1.1289841E1,5.0395504E1,1.03222145E2,9.166959E0,2.0228209E1,1.3080063E0,6.9586353E0,3.1097649E1,3.47924E1,2.5167196E1,3.631015E1,5.0006004E1,4.9087265E1,2.562566E1,9.165192E1,1.6533447E1,1.3496323E1,2.3574781E1,1.6641537E1,0E0,0E0,0E0,0E0,0E0,0E0,0E0,0E0,0E0,0E0,0E0,0E0,0E0,0E0,0E0,0E0,0E0,0E0,0E0,0E0,0E0,0E0,0E0,0E0,0E0,0E0,0E0,0E0,0E0,0E0,0E0,0E0,0E0,0E0,0E0,0E0,0E0,0E0,0E0,0E0,0E0,0E0,0E0,0E0,0E0,0E0,0E0,0E0,0E0,0E0,0E0,0E0,0E0,0E0,0E0,0E0,0E0,0E0,0E0,0E0],"parents":[2147483647,0,0,1,1,2,2,3,3,4,4,5,5,6,6,7,7,8,8,9,9,10,10,11,11,12,12,13,13,14,14,15,15,16,16,17,17,18,18,19,19,20,20,21,21,22,22,24,24,25,25,26,26,27,27,28,28,29,29,30,30,31,31,32,32,33,33,34,34,35,35,36,36,37,37,38,38,39,39,40,40,41,41,42,42,43,43,44,44,45,45,46,46,47,47,48,48,49,49,50,50,51,51,52,52,53,53,54,54,55,55,56,56,57,57,58,58,59,59,60,60],"right_children":[2,4,6,8,10,12,14,16,18,20,22,24,26,28,30,32,34,36,38,40,42,44,46,-1,48,50,52,54,56,58,60,62,64,66,68,70,72,74,76,78,80,82,84,86,88,90,92,94,96,98,100,102,104,106,108,110,112,114,116,118,120,-1,-1,-1,-1,-1,-1,-1,-1,-1,-1,-1,-1,-1,-1,-1,-1,-1,-1,-1,-1,-1,-1,-1,-1,-1,-1,-1,-1,-1,-1,-1,-1,-1,-1,-1,-1,-1,-1,-1,-1,-1,-1,-1,